svm_type c_svc
kernel_type linear
nr_class 6
total_sv 392
rho 6.56428 0.627221 0.355101 0.267299 0.280791 -13.0654 -10.2527 -17.7523 -12.225 3.02969 -5.02061 7.21841 -0.777744 3.48152 4.4303
label 1 5 0 3 4 2
nr_sv 6 119 119 43 42 63
SV
0 0 0 0 0.006503932681012521 1:1.6492399 2:6.2903698 3:1.1120229 4:7.6435904 5:8.7311938 6:4.9419798 7:0.31980219 8:0.5847732 9:0.69752196 10:0.24830145 11:0.21337522 12:0.13975065 13:0.78187692 14:2.7920905 15:2.1954243 16:-0.27591304 17:-0.6053854 18:0.42345059 
1 0 0 0 0 1:0.85853078 2:9.2591082 3:1.4433804 4:3.9478883 5:5.3106145 6:2.5446067 7:0.26927801 8:0.41864404 9:0.60460433 10:0.16143023 11:-0.09689849 12:-0.07345664 13:0.57895416 14:1.383784 15:1.2439996 16:-0.33293197 17:-0.19409004 18:0.4177533 
0 0.01295018023609585 0.007666845519739145 0.006854057340357704 0.00133514203496462 1:1.6152721 2:6.3849108 3:1.9588879 4:6.1958259 5:8.8695957 6:4.8527639 7:0.35006836 8:0.6183694 9:0.69527103 10:0.23634371 11:-0.19155816 12:-0.11534663 13:1.3711259 14:2.4317382 15:1.7965742 16:-0.29376189 17:-0.59207636 18:0.31420911 
0.1463858368538771 0 0 0 0 1:1.1105205 2:6.910863 3:2.1388063 4:5.5761319 5:8.9777951 6:4.4949882 7:0.23318109 8:0.53927556 9:0.67637878 10:0.19207741 11:0.02240961 12:0.01601385 13:1.3065008 14:2.2019032 15:1.7343519 16:-0.43198205 17:-0.64535488 18:0.30249374 
0.08010731431555822 0 0 0 0 1:0.53522975 2:8.1240649 3:2.5737129 4:4.5256793 5:8.2435057 6:3.5243556 7:0.25266866 8:0.40807671 9:0.76150464 10:0.14375493 11:0.00106902 12:-0.0529223 13:1.0903232 14:1.8901369 15:1.6057466 16:-0.41380134 17:-0.64415397 18:0.37681054 
1 0 0 0 0 1:-0.42634747 2:9.3307606 3:1.7604206 4:3.9484717 5:6.3447475 6:2.3313993 7:0.23935607 8:0.29109926 9:0.67448176 10:0.03592193 11:0.04900055 12:0.00142942 13:0.5715733 14:1.7264252 15:1.1194002 16:-0.53076685 17:-0.46379716 18:0.56801271 
-1 0 0 0 0 1:1.0129867 2:9.3560613 3:1.1931385 4:2.9185511 5:4.9680622 6:1.9400838 7:0.038074473 8:0.54110406 9:0.40217204 10:0.03561339 11:0.00431887 12:-0.01118183 13:0.56126291 14:1.2198458 15:1.0491255 16:-0.56450483 17:-0.55598144 18:0.41319769 
-0.1256811399827187 0 0 0 0 1:-3.8195716 2:5.86255 3:2.3980325 4:5.5680202 5:5.8099016 6:4.4583247 7:0.41055651 8:0.17977594 9:0.039433519 10:-0.089339 11:-0.47608093 12:-0.31933593 13:1.5816358 14:2.6881662 15:1.8464409 16:-0.20178126 17:-0.21143852 18:0.20350609 
-0 1 0 0 0 1:0.50148954 2:-9.9075897 3:-0.60992884 4:1.6278354 5:2.4400029 6:2.1838265 7:0.29724598 8:-0.28449844 9:0.039180273 10:-0.00036041 11:-0.02894889 12:0.03332267 13:0.97800395 14:0.6457468 15:0.269059 16:-0.41620836 17:-0.26516035 18:0.12352321 
-0 1 0 0 0 1:0.41009683 2:-9.6976422 3:-1.4003566 4:0.85786247 5:0.85683855 6:1.2318911 7:0.36462776 8:0.034309182 9:-0.211636 10:-0.08288405 11:-0.10815741 12:0.03694219 13:0.62869521 14:0.56183439 15:0.23206997 16:-0.19201978 17:-0.2477853 18:0.59240438 
-0 0 0 0 1 1:1.5495394 2:-1.8582058 3:-9.3585333 4:0.6590382 5:1.8009081 6:0.71876548 7:0.069715399 8:-0.022781925 9:-0.79776049 10:-0.31489985 11:-0.06656973 12:-0.06392997 13:0.43242125 14:0.29886858 15:0.31571071 16:0.75148506 17:0.82091126 18:0.8205535 
-0 1 0 0 0 1:0.0327168 2:-9.6905553 3:-1.2619957 4:1.1697996 5:1.3660487 6:1.5314095 7:0.16563571 8:-0.24922358 9:-0.19377363 10:-0.07422771 11:-0.35671002 12:-0.05903054 13:0.60705756 14:0.6011106 15:0.24882075 16:-0.15002927 17:0.054590284 18:0.44512051 
-0 0 0 0 0.3598848754302925 1:-3.295038 2:-1.0099821 3:-6.8894052 4:1.2372089 5:1.2567518 6:5.6866451 7:0.84373291 8:0.96469845 9:0.92886316 10:0.00242025 11:-0.02511951 12:0.00079175 13:0.081915025 14:0.12753071 15:0.064772697 16:-0.47036519 17:-0.51454297 18:0.72924388 
-0 0 0 0 1 1:-3.1114566 2:-2.8996835 3:-7.6545981 4:1.5872992 5:3.5545433 6:1.9295527 7:-0.85817903 8:0.79323019 9:-0.95392954 10:0.02376019 11:-0.13482514 12:-0.20807904 13:0.26561944 14:0.31376281 15:0.407063 16:-0.51028064 17:-0.040576852 18:0.0028830506 
-0 1 0 0 1 1:0.21947642 2:-9.2062262 3:-2.2277568 4:2.7670266 5:3.325666 6:3.2505566 7:0.30616196 8:0.20374574 9:0.10062298 10:0.07104419 11:-0.7641782 12:-0.24410783 13:0.94927709 14:0.69356767 15:0.60529947 16:-0.18875796 17:-0.69079191 18:0.18612817 
-0 1 0 0 0 1:0.20542255 2:-9.9183516 3:-0.69728135 4:1.500969 5:1.5800764 6:1.7033253 7:0.32572179 8:0.33613171 9:0.32192143 10:-0.031569 11:-0.03991193 12:0.02216832 13:0.76918233 14:0.54190244 15:0.42830715 16:-0.16057897 17:-0.81576978 18:0.34756488 
-0 1 0 0 0 1:0.87034615 2:-9.30048 3:-2.3843436 4:1.3442032 5:1.2906155 6:1.6692781 7:0.52066888 8:-0.14995591 9:-0.383211 10:0.12710549 11:-0.40885929 12:-0.06163656 13:0.7120345 14:0.67609697 15:0.26753992 16:-0.2344216 17:0.67861327 18:0.095046692 
-0 0 0 0 0.7066488886409317 1:-0.11229406 2:-2.2786576 3:-8.5841109 4:1.3107205 5:2.8870101 6:2.5445091 7:-0.59629941 8:0.52296864 9:-0.97813967 10:-0.27637714 11:0.07592646 12:-0.07814209 13:0.54558983 14:0.39410889 15:0.26822204 16:-0.18341841 17:0.72681667 18:-0.11001982 
-0 0 0 0 1 1:-1.1124957 2:-2.1078253 3:-9.5396368 4:0.086374821 5:0.26442123 6:0.11473944 7:-0.35645389 8:0.18102526 9:-0.10005917 10:-0.08412873 11:0.02907001 12:-0.05049127 13:0.02155347 14:0.015892097 15:0.021466655 16:0.18057207 17:-0.50323317 18:0.30154791 
-0 0.1946608647536131 0.2905919021952152 0 1 1:0.91548287 2:-6.5654996 3:-4.6078566 4:1.9328772 5:4.345596 6:4.4165663 7:-0.14465933 8:0.044528138 9:-0.8593698 10:-0.0023887 11:0.50624437 12:0.07768953 13:0.97242567 14:0.60662733 15:0.48861765 16:-0.20571671 17:-0.052507958 18:0.3891064 
-0 1 0.5421888969987059 0.9807188108951722 0 1:1.5584995 2:-9.3233565 3:-2.114996 4:2.4998617 5:2.8601654 6:2.5364415 7:0.26255743 8:-0.51520763 9:-0.25194382 10:-0.07294673 11:-0.56942521 12:-0.2046126 13:1.0409127 14:1.0157864 15:0.45458961 16:-0.066819327 17:0.45272347 18:-0.14926703 
-0 1 0 0 0.9324069153427872 1:0.84582962 2:-10.188543 3:-0.19446907 4:2.1455703 5:2.6709655 6:2.5990769 7:0.046834576 8:-0.17478194 9:0.68288622 10:0.00968192 11:0.17155433 12:0.02435794 13:0.84730345 14:0.95185929 15:0.42751217 16:-0.20894439 17:-0.156448 18:0.45447511 
-0 1 1 0 0 1:0.89524592 2:-9.6817088 3:-0.34152095 4:1.576642 5:2.6677739 6:2.1732526 7:0.20052708 8:-0.31250788 9:0.083382546 10:-0.0235583 11:-0.00439025 12:-8.882e-05 13:1.0925373 14:1.0350187 15:0.27070062 16:-0.59007088 17:0.34928353 18:-0.026474825 
-0 1 0 0 0 1:0.9704957 2:-9.6823492 3:-0.66066199 4:1.2857471 5:1.4859628 6:1.6923068 7:-0.18719339 8:-0.3616414 9:-0.027754307 10:0.19345463 11:-0.04767914 12:-0.0580264 13:0.80396387 14:0.60050464 15:0.19153713 16:-0.38506514 17:0.40620635 18:0.12794744 
-0 1 0 0 0 1:1.1183975 2:-9.6284138 3:-0.94209446 4:1.4465288 5:1.7873446 6:1.7131383 7:0.28401132 8:-0.50433966 9:-0.16252516 10:-0.32829462 11:0.10009838 12:0.01723225 13:1.1044024 14:0.79909144 15:0.3296901 16:-0.15574649 17:0.43334531 18:0.43175381 
-0 1 0 0 0 1:0.80485286 2:-9.7687799 3:-0.54502804 4:0.87693226 5:1.304905 6:1.3231071 7:0.34003154 8:-0.44322402 9:-0.01130331 10:-0.18137534 11:0.45106795 12:0.08188627 13:0.80170181 14:0.89707209 15:0.50408563 16:-0.46789117 17:-0.45224401 18:0.85299984 
-0 1 0 0 0 1:1.4792755 2:-9.9575507 3:-1.1744816 4:1.3787597 5:2.281866 6:2.3416753 7:0.26147087 8:-0.20663978 9:0.2789636 10:-0.21437425 11:-0.07151505 12:-0.01341179 13:1.0951798 14:0.81790646 15:0.3260995 16:-0.40947354 17:0.092463829 18:0.21687746 
-0 1 0 0 0 1:1.0947607 2:-9.9445741 3:-0.41246112 4:0.82756511 5:1.213189 6:1.6768005 7:0.35270191 8:-0.42547761 9:-0.12642321 10:-0.28534458 11:0.13742217 12:-0.02421194 13:0.73690977 14:0.5060904 15:0.19879042 16:-0.32897986 17:-0.063919553 18:0.72076167 
-0 0.3024104179569226 0 0 0 1:0.94057406 2:-9.9919374 3:-0.237858 4:0.58222063 5:0.44880843 6:1.3490072 7:-0.17161516 8:-0.5752449 9:0.28996525 10:-0.1551631 11:3.256e-05 12:-0.06978544 13:0.66516188 14:0.30632092 15:0.11395566 16:-0.76576637 17:0.70241683 18:-0.49171965 
-0 1 0.4333214624303977 0 0 1:1.178474 2:-9.7389541 3:-1.081389 4:1.9871624 5:1.320958 6:2.0097525 7:0.57898842 8:-0.55200445 9:-0.47580947 10:-0.09266243 11:0.32738911 12:-0.01212288 13:0.98648384 14:1.0240294 15:0.48841072 16:-0.42987346 17:0.41705222 18:0.28936478 
-0 1 0 0 0 1:0.94913342 2:-9.8865985 3:-0.49770072 4:1.4546084 5:1.6496217 6:1.6083041 7:0.13199725 8:-0.12047285 9:0.032927945 10:-0.08504194 11:0.11043725 12:0.04240297 13:1.0542873 14:0.79275266 15:0.36539716 16:-0.26193457 17:0.13599458 18:0.58657378 
-0 1 0 0 0 1:0.67722384 2:-9.9156343 3:-0.32696414 4:1.4397555 5:2.0484115 6:1.9940594 7:0.2729203 8:-0.20845714 9:0.28885131 10:0.08386542 11:-0.2523067 12:-0.03511279 13:0.86300129 14:0.87058401 15:0.21839115 16:-0.31125467 17:0.11410433 18:-0.07383896 
-0 1 0 0 0 1:1.2696691 2:-9.9605016 3:-0.73548082 4:1.4651161 5:1.1065422 6:2.1793691 7:0.23758659 8:-0.53834947 9:-0.07578876 10:0.11849266 11:0.32680374 12:0.09151371 13:0.67537713 14:0.79335365 15:0.36620443 16:-0.23850985 17:0.34666476 18:0.074822283 
-0 0 0 0 1 1:1.0536582 2:-2.898235 3:-9.3936924 4:0.3487157 5:0.30090487 6:0.22293904 7:0.36395489 8:0.19108112 9:-0.0069968053 10:-0.11424797 11:0.06878488 12:0.0431697 13:0.082849228 14:0.12563536 15:0.07900539 16:-0.43310319 17:-0.48800448 18:0.37171877 
-0 0.6210277677453305 0 0 0 1:0.48527472 2:-0.39675511 3:1.5328099 4:1.8067935 5:3.7883096 6:8.6989443 7:0.65150304 8:0.24867039 9:0.61972264 10:0.49482432 11:-0.25575865 12:0.35022108 13:1.1912673 14:1.5399965 15:0.90203238 16:-0.55587587 17:0.21112825 18:-0.16626057 
-0 0.1000388662711499 0 0 0 1:0.86905936 2:-6.7784579 3:1.597543 4:1.3506117 5:5.9957834 6:5.2145923 7:-0.1619853 8:-0.25296949 9:0.86930018 10:-0.19495048 11:0.14263015 12:0.13480724 13:1.3499076 14:0.93324886 15:0.46931624 16:-0.35841792 17:-0.26070576 18:0.47879968 
-0 1 0 0 0 1:1.491905 2:-9.3804762 3:-1.3647788 4:1.400525 5:2.2789269 6:1.5324384 7:0.11044757 8:0.032275871 9:-0.28735974 10:0.06654155 11:-0.18344587 12:-0.0015149 13:1.029504 14:0.82972757 15:0.41969419 16:-0.53675102 17:-0.14610459 18:0.1448364 
-0 1 0 0 0 1:2.1410688 2:-9.4072973 3:-1.8453369 4:1.430031 5:1.6420749 6:1.6837973 7:0.45839379 8:-0.2174078 9:-0.21856544 10:0.04592182 11:-0.24182626 12:0.00256864 13:0.83911901 14:0.72070274 15:0.36783814 16:-0.2377029 17:0.022904299 18:0.30852322 
-0 1 0 0 0 1:1.5101188 2:-9.7240562 3:-1.3281535 4:0.87010613 5:0.66280855 6:1.8809911 7:0.023612733 8:-0.15599195 9:-0.33701154 10:0.04831337 11:0.28261073 12:0.04479469 13:0.51475579 14:0.57498074 15:0.29949254 16:-0.39604686 17:-0.0029577421 18:0.49189627 
-0 0 0 0 1 1:1.380808 2:-9.0537635 3:-3.7465426 4:0.29079155 5:0.087691028 6:0.17339463 7:0.19409965 8:0.66867527 9:-0.053585006 10:-0.00156687 11:0.0002963 12:0.00849408 13:0.015864055 14:0.059507005 15:0.01204423 16:-0.49630836 17:-0.3293353 18:0.33441861 
-0 0 0 0 0.1957181071085636 1:1.2287582 2:-9.3110085 3:-3.2878673 4:0.091023834 5:0.038483219 6:0.068889993 7:0.45533201 8:-0.21868067 9:-0.33961141 10:-0.00804814 11:-0.0113529 12:-0.0021044 13:0.014335634 14:0.040552292 15:0.011915237 16:-0.72101582 17:-0.65445549 18:0.71982188 
-0 1 0 0.4198365176684932 1 1:1.4259506 2:-10.020506 3:-1.4582723 4:1.512446 5:2.4837181 6:1.9276954 7:0.34677639 8:0.036057464 9:0.0015951035 10:-0.08624634 11:0.41172028 12:0.15271019 13:0.71143769 14:1.1052601 15:0.59595795 16:-0.033416799 17:-0.1187727 18:0.4424923 
-0 1 0.05417421170629329 0 0 1:1.1775342 2:-9.2838881 3:-1.067808 4:1.3530591 5:2.4316104 6:2.6569943 7:0.1041415 8:-0.42473487 9:0.074430356 10:-0.12721708 11:0.21874497 12:0.10902426 13:1.0164508 14:1.1782342 15:0.24903131 16:-0.36862386 17:0.072503724 18:0.5177292 
-0 1 0 0 0 1:1.0770556 2:-9.9298079 3:-0.36090193 4:1.4568286 5:2.2719485 6:1.3168359 7:0.33161099 8:-0.19670666 9:-0.14820953 10:0.07930119 11:-0.30811112 12:0.02342365 13:1.0873179 14:0.88596707 15:0.27991589 16:-0.35468112 17:-0.014467016 18:0.55276386 
-0.03518143491015515 0 0 0 0 1:0.34311301 2:7.9869371 3:4.3032604 4:2.1723992 5:3.386674 6:2.9146794 7:-0.012742658 8:0.27577343 9:0.41005793 10:-0.11521227 11:-0.18432559 12:-0.01470969 13:0.74432739 14:1.2341888 15:0.7145236 16:0.44322972 17:0.53014413 18:0.76214836 
-1 0 0 0 0 1:0.03930685 2:8.9223337 3:1.7630302 4:4.7703388 5:7.2185706 6:3.208566 7:0.03723298 8:0.15983964 9:0.7096281 10:0.01462414 11:-0.02895805 12:0.13837314 13:0.82920774 14:1.9710152 15:1.5059961 16:-0.45149509 17:-0.47485343 18:0.64683532 
-0.06563057627656152 0 0 0 0 1:-0.65712462 2:9.0844213 3:1.1364677 4:2.7599693 5:3.7177357 6:1.9660874 7:0.35609586 8:0.44328195 9:0.55720382 10:-0.05039023 11:0.08984914 12:0.22084299 13:0.28893566 14:1.1827444 15:0.93063457 16:-0.30984023 17:-0.34573634 18:0.65809547 
-0 0 0 0 0.09414118899438752 1:0.97924647 2:-9.8405281 3:-0.79027209 4:0.90605437 5:1.3511458 6:1.2178312 7:0.81604084 8:0.60124051 9:0.81289556 10:0.06814508 11:0.00371404 12:0.01674382 13:0.25100572 14:0.28911785 15:0.1032363 16:-0.4489387 17:-0.57381797 18:0.38708929 
-0 1 0 0 0 1:1.493108 2:-9.6474538 3:-0.5680244 4:1.3634543 5:1.0206992 6:1.940176 7:0.13187347 8:-0.37220466 9:-0.48241123 10:0.04558587 11:-0.3398427 12:0.03753461 13:0.80214063 14:0.72969011 15:0.23479424 16:-0.28063524 17:0.33082238 18:-0.073338468 
-0 1 0 0 0 1:1.2875238 2:-9.912833 3:-0.51615992 4:1.4982349 5:1.5766125 6:1.829067 7:-0.010045172 8:-0.37462971 9:-0.08423198 10:-0.01611152 11:0.30201174 12:0.08818143 13:1.016338 14:1.05998 15:0.56409491 16:-0.80566217 17:-0.33761057 18:0.50223013 
-0 1 0 0 0 1:1.3094428 2:-9.4389307 3:-2.122777 4:1.0124929 5:0.6812486 6:1.4897208 7:0.35172862 8:-0.54636202 9:-0.42714019 10:0.15336076 11:-0.42349455 12:-0.02615725 13:0.49970192 14:0.43927383 15:0.27287103 16:0.084810096 17:0.12532466 18:0.18323132 
-0 1 0 0 0 1:1.6418238 2:-9.7433176 3:-0.07281958 4:1.4539677 5:0.61735904 6:1.1432597 7:0.11425503 8:-0.16919109 9:-0.59491196 10:-0.32484291 11:0.02502101 12:0.04205194 13:0.77994322 14:0.85009173 15:0.47280389 16:0.33167112 17:-0.0084482292 18:0.50938282 
-0 1 0 0 0 1:1.2777616 2:-9.7438981 3:-0.67205239 4:1.0259243 5:0.89737495 6:1.6408884 7:0.19355245 8:-0.59997353 9:-0.16300671 10:-0.13732129 11:0.67684388 12:0.07559474 13:0.69128569 14:0.77415698 15:0.29619587 16:-0.15795882 17:0.12031929 18:0.43537022 
-0 1 0 0 0 1:1.3864942 2:-9.8140722 3:-0.88383153 4:1.1755336 5:1.3419848 6:1.8697364 7:0.14516665 8:-0.46783218 9:-0.012507706 10:-0.15358861 11:0.60527802 12:0.18424011 13:0.98960544 14:0.91326397 15:0.46108149 16:-0.39057437 17:0.32386334 18:0.4846962 
-0 1 0 0 0 1:0.96476159 2:-9.7640992 3:-0.40370419 4:1.0315447 5:1.0699983 6:1.4225021 7:0.054912612 8:-0.41846855 9:-0.13191621 10:-0.02803753 11:0.49428684 12:0.09754926 13:0.68313744 14:0.79117798 15:0.49985379 16:-0.70560646 17:-0.3937503 18:0.53216254 
-0 1 0 0 0 1:1.2115379 2:-10.003136 3:-0.51619587 4:1.0343282 5:0.88165735 6:0.96304827 7:0.29102621 8:-0.45671552 9:-0.22906659 10:-0.22350524 11:0.46335568 12:0.11044766 13:0.80022691 14:0.76379196 15:0.28894035 16:-0.37465333 17:0.18987246 18:0.6512912 
-0 1 0 0 0 1:1.5188696 2:-9.721662 3:-0.68110251 4:1.6034472 5:1.3822011 6:2.0896798 7:0.046443983 8:-0.10117987 9:-0.34003997 10:-0.00852947 11:-0.64585349 12:-0.04789784 13:0.88406686 14:1.3464773 15:0.61110537 16:-0.16373081 17:-0.1699582 18:0.59447636 
-0 1 0 0 0 1:1.0035476 2:-9.9064644 3:-0.52876545 4:1.1844603 5:1.4250865 6:1.8601273 7:0.10118187 8:-0.29885929 9:-0.11228791 10:0.09398281 11:-0.14300752 12:0.05254369 13:0.92594951 14:0.71028881 15:0.23068826 16:-0.1794523 17:0.16886538 18:0.32245341 
-0 1 0 0 0 1:1.2934256 2:-9.7388763 3:-0.69255273 4:0.91981485 5:1.3072993 6:1.5982311 7:0.5650639 8:-0.34273135 9:-0.52142809 10:-0.27739269 11:0.19296839 12:0.01073608 13:0.99324347 14:0.57683914 15:0.29810483 16:-0.45158033 17:0.72899084 18:-0.011792201 
-0 1 0 1 1 1:1.537688 2:-9.4566837 3:-1.6819686 4:3.092705 5:2.7876981 6:2.4382891 7:0.6446621 8:0.20615865 9:0.097092512 10:-0.15408955 11:0.2669136 12:0.05158767 13:1.0744366 14:0.73346086 15:0.35594048 16:-0.71778429 17:0.3186541 18:-0.092031777 
-0 0 0 0 1 1:3.0751067 2:-7.4517493 3:-4.958697 4:2.6553489 5:2.1126841 6:2.3581499 7:-0.26999138 8:0.57930872 9:-0.61761491 10:-0.3230518 11:0.13345177 12:0.10010567 13:0.495919 14:0.74531205 15:0.42070463 16:-0.43269488 17:-0.14615571 18:-0.011986462 
-0 0 0 0 0.7011621113363395 1:2.3844872 2:-8.4060361 3:-3.8336556 4:2.1328212 5:1.7203832 6:2.0541264 7:0.057485525 8:0.34519859 9:-0.34655275 10:0.06640226 11:0.12999119 12:-0.02314556 13:0.50812786 14:0.65114341 15:0.36523492 16:-0.40660936 17:0.087702053 18:-0.26671629 
-0 0 0 0 1 1:3.5651159 2:-7.5485827 3:-4.390936 4:2.5616922 5:2.6304148 6:3.3072317 7:-0.25229267 8:0.2472552 9:-0.25544503 10:-0.44361212 11:0.11762422 12:-0.0008337 13:0.61771497 14:0.81524402 15:0.48136441 16:-0.30922097 17:0.44151987 18:-0.1743654 
-0 1 1 0 0 1:1.2595716 2:-8.9055984 3:-1.6057013 4:2.8416816 5:2.8813477 6:2.6688863 7:0.31512791 8:-0.64425953 9:-0.45948162 10:0.13032624 11:0.07379468 12:0.37111601 13:1.3770101 14:0.93143694 15:0.77809424 16:-0.4049111 17:0.32813691 18:-0.30172411 
-0 1 0 0 0 1:0.32496498 2:-9.6880595 3:-0.73270358 4:2.0457303 5:1.596448 6:2.1235656 7:0.29871801 8:-0.30190203 9:-0.11408565 10:-0.02118357 11:-0.0061248 12:-0.18294184 13:0.64519564 14:0.56181357 15:0.52360011 16:-0.42787292 17:-0.10149079 18:0.05738868 
-0 1 0.8261613596386318 1 1 1:1.1438897 2:-10.097103 3:-1.0950719 4:1.8491257 5:2.9167508 6:3.0348581 7:0.19194587 8:0.1131058 9:0.49496665 10:0.10573279 11:-0.14725307 12:0.01209829 13:1.3801683 14:0.77490099 15:0.34995896 16:-0.36407608 17:-0.048096299 18:0.24924971 
-0 1 1 0 0 1:1.2877932 2:-9.8435868 3:-1.608754 4:1.5858885 5:2.5505554 6:2.7511251 7:0.51072391 8:-0.14263607 9:0.077346395 10:0.17203002 11:-0.31780357 12:-0.05542672 13:0.87020971 14:1.1753147 15:0.39568276 16:-0.2464069 17:0.41811489 18:0.1190659 
-0 1 0 0 0 1:1.1269448 2:-9.9258395 3:-0.42744282 4:1.6522901 5:1.476786 6:1.7966029 7:0.21506243 8:-0.33975207 9:-0.19752983 10:0.11632217 11:-0.72523237 12:-0.08018508 13:0.8864408 14:0.81299544 15:0.28906946 16:-0.32607898 17:0.26567736 18:0.40042482 
-0 0 0 0 1 1:0.66575567 2:-9.5421986 3:-3.1468789 4:0.10226895 5:0.39468428 6:0.22636045 7:0.16719192 8:0.29240739 9:0.91979724 10:-0.08832527 11:-0.02083481 12:0.0284687 13:0.023797268 14:0.046346858 15:0.012579461 16:-0.51801215 17:-0.58156229 18:0.38356366 
-0 1 0 0 0 1:1.7300082 2:-9.8070512 3:-0.88606418 4:0.87423669 5:1.3937489 6:1.9617238 7:0.43924143 8:0.034687171 9:-0.28325616 10:-0.18775882 11:0.03794274 12:0.06828189 13:0.77597873 14:0.37715587 15:0.22181043 16:0.086825511 17:-0.68380707 18:0.42136403 
-0 1 0 0 0 1:1.784189 2:-10.197354 3:-0.11750138 4:1.2176781 5:1.4561801 6:1.6218415 7:0.39071218 8:0.070579455 9:-0.047331347 10:-0.30741818 11:0.26384983 12:0.07859321 13:1.0380053 14:0.71893333 15:0.43477795 16:-0.31851202 17:-0.25024136 18:0.6601578 
-0 1 0 1 0 1:1.5231912 2:-10.040576 3:-0.50560154 4:1.3437335 5:3.3141455 6:2.5554475 7:0.051149635 8:-0.54782391 9:0.46003301 10:-0.22429774 11:0.11604489 12:-0.04796585 13:0.90907496 14:0.37638949 15:0.37673666 16:0.075685136 17:0.69354049 18:0.11730594 
-0 1 0 0 0 1:0.72024769 2:-9.7912375 3:-0.090854 4:1.1280573 5:1.7669 6:1.6988145 7:0.40841089 8:-0.15542213 9:-0.040526363 10:-0.38702 11:0.22508741 12:0.10580431 13:1.1144575 14:0.74397883 15:0.39943553 16:-0.48579881 17:-0.13136487 18:0.78412002 
-0 1 0 0 0 1:1.1983218 2:-9.8414799 3:-0.17310083 4:0.72555112 5:1.3553566 6:0.94807271 7:0.25643355 8:-0.35315404 9:-0.21440342 10:-0.41642096 11:0.15528996 12:0.11790243 13:0.84277497 14:0.68981161 15:0.32512144 16:-0.29773495 17:-0.27740951 18:0.85509528 
-0 1 0 0 0 1:1.0098204 2:-9.7140065 3:-1.3703214 4:1.2043949 5:1.1848716 6:1.8767518 7:0.34922671 8:-0.5540662 9:-0.24607487 10:-0.19730669 11:-0.43477541 12:-0.04487786 13:0.82047416 14:0.623974 15:0.30580998 16:-0.17162491 17:0.28554952 18:-0.093126755 
-0 1 0 0 0 1:0.82601154 2:-9.8045014 3:-1.2431772 4:1.5063628 5:1.4565694 6:1.6214411 7:0.34852483 8:-0.063424877 9:-0.0065659628 10:-0.1243633 11:-0.36089429 12:-0.02752929 13:0.83106394 14:1.0290578 15:0.34342316 16:-0.19561139 17:-0.046773699 18:0.42305449 
-0 0 0 0 1 1:3.2712217 2:-8.2574041 3:-3.908223 4:1.9513599 5:1.4772303 6:1.606708 7:0.04347663 8:0.5140736 9:-0.15569163 10:-0.07745165 11:-0.1895576 12:0.02602285 13:0.42464235 14:0.67500328 15:0.36507793 16:-0.12205722 17:-0.1916288 18:0.28552737 
-0 0 0.2337293418257878 0.496545075972563 1 1:0.60843252 2:-5.1989791 3:-7.7129926 4:0.91197789 5:2.5160988 6:1.0372632 7:0.61865897 8:-0.37145469 9:-0.80286286 10:0.35805564 11:-0.13164457 12:-0.15353483 13:1.005628 14:0.57575876 15:0.45904092 16:-0.88835424 17:-0.54998077 18:0.57802059 
-0 1 0 0 1 1:0.84507541 2:-7.3244675 3:-5.9399606 4:1.2459479 5:2.3024032 6:2.2718333 7:-0.032105663 8:0.50572279 9:-0.5727134 10:0.08258898 11:0.16262759 12:-0.01501203 13:1.1125456 14:0.54789537 15:0.28981792 16:-0.42974228 17:-0.71552066 18:0.54221097 
-0 0 0 0 1 1:2.9039931 2:-7.0102884 3:-5.6055205 4:2.176672 5:1.9445161 6:2.2760457 7:-0.45137118 8:0.55331855 9:-0.77905392 10:-0.09019781 11:-0.11607557 12:0.00659073 13:0.49492539 14:0.54305974 15:0.27512747 16:-0.16550491 17:0.26649904 18:-0.10610389 
-0 0 0 0 1 1:0.42571304 2:-6.2690016 3:-7.1476378 4:0.59221267 5:2.2703505 6:2.1091118 7:-0.68472578 8:0.81150862 9:-0.90229558 10:0.10953061 11:-0.0319716 12:-0.06811199 13:0.25389167 14:0.12916452 15:0.13614273 16:-0.42691083 17:-0.55288262 18:0.36261207 
-0 0 0 0 1 1:2.593088 2:-8.6041444 3:-2.9973729 4:2.0732271 5:1.9388732 6:2.3342648 7:-0.1001491 8:0.51896724 9:-0.70558027 10:0.05895153 11:0.12636967 12:-0.02611758 13:0.73463463 14:0.48506592 15:0.64986841 16:-0.47769224 17:-0.67040241 18:0.71194672 
-0 1 0 0 0 1:1.0493906 2:-9.7593647 3:-1.0641748 4:1.1482186 5:0.8293676 6:1.4374536 7:0.19997348 8:-0.049898777 9:-0.22809139 10:-0.03008813 11:0.05593081 12:0.05708837 13:0.69282062 14:0.77014674 15:0.27973546 16:-0.12773651 17:0.056237863 18:0.18384042 
-0 1 0 0 0 1:0.90802492 2:-10.086036 3:-0.30213625 4:1.7705221 5:2.2386881 6:2.5644181 7:0.41053573 8:-0.070315573 9:0.097073064 10:-0.05994725 11:0.32443365 12:0.07358483 13:1.1662554 14:0.8175803 15:0.41879765 16:-0.34861877 17:-0.38134436 18:0.53370951 
-0 0 0 0 1 1:3.1306163 2:-8.3876787 3:-4.2718903 4:0.1812724 5:0.082559547 6:0.10986546 7:-0.029878808 8:0.45855579 9:-0.091855911 10:-0.05178891 11:0.07254315 12:0.02522916 13:0.014899319 14:0.061431293 15:0.020765605 16:-0.34705645 17:-0.28657419 18:0.44744284 
-0 0 0 0 1 1:3.0287789 2:-8.4086399 3:-4.3001419 4:0.081275043 5:0.037986378 6:0.060984959 7:-0.03399857 8:0.56165498 9:0.11935946 10:-0.04810538 11:0.06601909 12:0.02040635 13:0.007797752 14:0.034055194 15:0.0076444747 16:0.0061730432 17:0.099636144 18:0.4839966 
-0 0 0 0 1 1:2.6374346 2:-8.4831055 3:-4.337677 4:0.54698341 5:0.080610008 6:0.20538234 7:-0.027909558 8:0.88550802 9:0.1908606 10:-0.05243033 11:0.10878275 12:0.02310333 13:0.013350735 14:0.10425305 15:0.014090113 16:-0.25992024 17:0.12836047 18:0.37628252 
-0 0 0 0 0.4926445506907592 1:3.7122217 2:-8.530379 3:-2.9890711 4:2.1234986 5:2.3437179 6:2.1107854 7:-0.23695366 8:0.065888665 9:-0.47575096 10:0.00743145 11:0.05033515 12:-0.05831897 13:0.36655563 14:0.39370893 15:0.30524609 16:0.226806 17:0.19080302 18:-0.02570375 
-0 0 0 0 1 1:2.8263132 2:-8.4127161 3:-3.7808515 4:1.8200468 5:0.57800021 6:1.2021778 7:0.13193852 8:0.43279925 9:-0.34609944 10:-0.03572625 11:0.07407945 12:-0.0521797 13:0.25304045 14:0.22784202 15:0.18268745 16:0.44810565 17:0.010784697 18:0.16279248 
-0 0 0 0 1 1:2.8442997 2:-7.9741522 3:-4.2495644 4:2.0754412 5:1.4843705 6:1.8290659 7:-0.25957843 8:0.6677544 9:-0.69242354 10:0.10362438 11:0.07441852 12:-0.01238185 13:0.43948356 14:0.22082613 15:0.22068222 16:-0.5427706 17:-0.17896727 18:0.066781292 
-0 0 0 0 1 1:3.8063019 2:-8.5416677 3:-2.522058 4:2.839257 5:2.8375495 6:1.934613 7:0.5487203 8:0.0019417824 9:-0.1259064 10:0.12519712 11:0.32362403 12:0.00578536 13:0.82046376 14:0.57386351 15:1.0160667 16:-0.44454105 17:0.18361334 18:-0.14485276 
-0 1 0 0 0 1:1.3664667 2:-9.4812961 3:-0.89113983 4:1.3876839 5:1.7729315 6:1.7690912 7:-0.061379474 8:-0.27506332 9:-0.29587633 10:-0.10494634 11:-0.35993719 12:-0.05895726 13:0.8443384 14:0.87855646 15:0.43069283 16:-0.1206794 17:-0.056101656 18:0.17007552 
-0 0 0 0.1831419746051341 0 1:1.0404721 2:-8.255405 3:0.88273625 4:2.143174 5:4.4781755 6:2.625529 7:0.46878467 8:0.2017142 9:0.89800792 10:0.23007656 11:-0.17625004 12:0.4754154 13:0.73512368 14:0.83117318 15:1.3117056 16:-0.44509939 17:0.71071241 18:-0.56229359 
-0 0 0 0 1 1:-2.3729771 2:-3.4988025 3:-7.7883561 4:1.3078583 5:2.8372472 6:2.4457823 7:-0.92442922 8:0.95326576 9:-0.97700352 10:0.17318338 11:-0.06677977 12:-0.10911581 13:0.44852281 14:0.15890748 15:0.24850618 16:-0.46722348 17:-0.78757945 18:0.68327587 
-0 0 0 0 1 1:-0.23347063 2:-9.2811587 3:-2.775185 4:1.674951 5:0.60097503 6:1.3519578 7:-0.27969163 8:0.80686293 9:-0.46114811 10:-0.07300142 11:0.06801381 12:0.12490362 13:0.27670326 14:0.22797558 15:0.26767187 16:-0.52674139 17:-0.67103747 18:0.45226327 
-0 0 0 0 1 1:-0.69757455 2:-9.5796439 3:-2.6203999 4:0.33000492 5:0.75298725 6:0.60219936 7:-0.038795675 8:-0.096682848 9:0.87646793 10:0.0073793 11:0.1113974 12:0.03741856 13:0.17960158 14:0.26839916 15:0.15783208 16:0.35072604 17:-0.41732013 18:0.32366715 
-0 1 0 0 0 1:0.66887407 2:-9.6997431 3:-1.0572076 4:1.1425834 5:1.3809201 6:2.2973674 7:0.1948616 8:0.24278607 9:-0.21391393 10:-0.11985482 11:-0.07300451 12:0.07790976 13:0.93088444 14:0.51226807 15:0.37252938 16:0.31268217 17:-0.61158968 18:0.073295541 
-0 0 0 0.692962378499258 1 1:-0.40750512 2:-6.2628426 3:-5.2962674 4:1.4513887 5:4.420148 6:4.1272082 7:-0.42868217 8:0.57236716 9:-0.8619524 10:0.10867602 11:0.15030339 12:0.01682928 13:0.86243442 14:0.60632716 15:0.50660248 16:-0.32643903 17:-0.57210286 18:0.49555427 
-0 1 0 0 0.3826162167648848 1:1.0232879 2:-9.8605376 3:-1.2699804 4:2.0429953 5:2.3623534 6:2.1694649 7:-0.035222194 8:-0.10007542 9:0.1865837 10:-0.0623724 11:-0.16975029 12:0.0917458 13:1.0524839 14:1.1183841 15:0.81764974 16:-0.18701332 17:-0.45884196 18:0.35704161 
-0 1 1 0 1 1:-1.4725776 2:-8.9335567 3:-3.27607 4:2.0960953 5:2.847179 6:3.1076328 7:-0.10664883 8:0.46094907 9:-0.13822146 10:0.13178806 11:-0.44943799 12:-0.03814247 13:1.0343849 14:0.81901622 15:0.45312368 16:-0.3884484 17:-0.6907066 18:0.52532201 
-0 0 0 0 0.4065289261899164 1:-2.8684811 2:-7.4484572 3:-5.7352204 4:0.69667286 5:0.34416044 6:0.55797092 7:-0.11021888 8:-0.41734664 9:-0.57250355 10:0.04800793 11:0.01195766 12:0.01512502 13:0.12103466 14:0.097979602 15:0.11223793 16:0.088404327 17:0.37543199 18:-0.14456722 
-0 0 0 0 1 1:-0.04656722 2:-7.8265975 3:-5.2460849 4:3.1229711 5:0.68120068 6:0.99179468 7:-0.35435485 8:0.44268065 9:-0.12128568 10:-0.04050032 11:0.04598902 12:-0.13571592 13:0.28835803 14:0.20442827 15:0.38245448 16:0.12170134 17:-0.4667115 18:-0.53689814 
-0 0 0 0 1 1:-1.3496653 2:-7.6724827 3:-6.0070401 4:1.1121674 5:1.0656926 6:0.86858117 7:-0.38909145 8:0.32079828 9:-0.72422062 10:0.04848743 11:0.03968175 12:-0.05234199 13:0.17361447 14:0.20516706 15:0.08791725 16:0.51263843 17:-0.2310578 18:-0.40366581 
-0 1 0.8889025955628028 0 1 1:-0.07463325 2:-10.189417 3:-1.20733 4:1.0876126 5:1.7245222 6:1.6713641 7:0.47904351 8:-0.036589049 9:-0.21848569 10:-0.18976833 11:0.1267332 12:0.06083603 13:1.0865675 14:0.87269296 15:0.57418795 16:-0.10046519 17:-0.45987914 18:0.59920311 
-0 0 0 0 1 1:1.1609843 2:-8.9066458 3:-4.1118977 4:0.53397909 5:0.26674535 6:0.50360484 7:0.23958371 8:0.58175104 9:-0.0092476571 10:-0.03301731 11:0.04992301 12:0.00877506 13:0.10102747 14:0.20764995 15:0.059558114 16:-0.53238454 17:0.14651901 18:0.084128653 
-0 0 0 0 0.1486605055699284 1:0.26991633 2:-9.1856661 3:-3.6976889 4:0.053974065 5:0.035574061 6:0.061349625 7:-0.18719413 8:0.4087537 9:-0.47826589 10:-0.02389334 11:0.00104018 12:0.02175878 13:0.02485372 14:0.011802157 15:0.026204965 16:-0.16275508 17:-0.93769846 18:0.11206981 
-0 0 0 0 1 1:0.1193689 2:-9.1284985 3:-3.840102 4:0.063746573 5:0.030193876 6:0.044324285 7:-0.0038141445 8:0.41748424 9:0.10310316 10:-0.04529518 11:0.00788545 12:0.04888555 13:0.0088576939 14:0.016123188 15:0.0061411884 16:-0.035420787 17:-0.28673316 18:0.19141034 
-0 0 0 0 1 1:0.47742774 2:-9.1856781 3:-3.6468061 4:0.34625646 5:0.25538997 6:0.3501435 7:-0.27508785 8:0.6388212 9:-0.72536264 10:-0.05081136 11:-0.0142309 12:0.0513901 13:0.035618949 14:0.12219174 15:0.031302667 16:0.10609564 17:0.18083875 18:0.31232371 
-0 0 0 0 1 1:-0.19324795 2:-8.9033478 3:-4.266623 4:0.34284522 5:0.11431464 6:0.1416208 7:-0.38532651 8:0.26356137 9:-0.4903973 10:-0.05430851 11:-0.0078016 12:0.04819835 13:0.039653245 14:0.16285215 15:0.049668946 16:0.63491293 17:0.034080236 18:-0.061025361 
-0 0 0 0 0.185888329859824 1:-0.25363574 2:-8.8360708 3:-4.4238922 4:0.23331193 5:0.088100968 6:0.16028177 7:0.16229013 8:-0.32982884 9:-0.70262713 10:-0.04215847 11:0.00848421 12:0.05218116 13:0.018046206 14:0.11066104 15:0.01533058 16:0.046275186 17:0.14439023 18:0.22428827 
-0 0 0 0 1 1:-0.31043213 2:-8.8249795 3:-4.3832565 4:0.45937522 5:0.40073083 6:0.38375155 7:0.11879996 8:-0.27530845 9:-0.4634089 10:-0.03582993 11:-0.05703421 12:0.03117042 13:0.10697451 14:0.2374352 15:0.086324864 16:-0.19171845 17:0.40055079 18:0.4290052 
-0 0 0 0 1 1:0.82927364 2:-8.9876296 3:-4.0870579 4:0.065773206 5:0.042393825 6:0.056363681 7:0.10640502 8:0.44297555 9:-0.044572662 10:-0.044324 11:0.00723794 12:0.04766382 13:0.008285911 14:0.017261271 15:0.0068989248 16:-0.072214219 17:-0.29584497 18:-0.014723004 
-0 0 0 0 1 1:0.18182765 2:-8.9581032 3:-4.2212051 4:0.095571188 5:0.087465356 6:0.07594242 7:0.3420686 8:0.39912863 9:-0.064605227 10:-0.04628794 11:0.00448297 12:0.05141451 13:0.010723272 14:0.020294306 15:0.01023079 16:0.050903586 17:-0.086348777 18:0.077547378 
-0 0 0 0 1 1:0.16189594 2:-8.9450488 3:-4.2367015 4:0.078219561 5:0.065768634 6:0.072946378 7:0.28475618 8:0.35209496 9:0.099807511 10:-0.04402159 11:0.00449825 12:0.04862597 13:0.0090487171 14:0.020663331 15:0.0085027688 16:-0.035344366 17:-0.15057604 18:0.10679309 
-0 0 0 0 1 1:-0.01095345 2:-8.8274576 3:-4.466467 4:0.1114595 5:0.077664462 6:0.084394407 7:-0.20891681 8:0.18432998 9:-0.067070482 10:-0.04223787 11:0.00893009 12:0.04884281 13:0.014959615 14:0.046486498 15:0.012555764 16:0.038587907 17:-0.21586032 18:-0.14338224 
-0 0 0 0 1 1:-0.32057761 2:-8.6131406 3:-4.8142668 4:0.065262052 5:0.032790943 6:0.049769446 7:-0.086747356 8:0.010831882 9:-0.0044113495 10:-0.04094593 11:0.00596741 12:0.05349762 13:0.0072200044 14:0.014271411 15:0.0066876564 16:-0.019791302 17:0.14489307 18:-0.044965901 
-0 0 0 0 1 1:0.89165458 2:-9.0980862 3:-3.8058409 4:1.4473303 5:1.2442138 6:0.73183425 7:-0.085693786 8:-0.23258411 9:0.1565696 10:-0.02027118 11:-0.06901028 12:0.01442056 13:0.24107383 14:0.4032132 15:0.35995974 16:-0.072726427 17:-0.23053188 18:0.20163288 
-0 0 0 0 1 1:0.00619501 2:-8.8139961 3:-4.3552145 4:0.93841388 5:0.50572299 6:0.57123241 7:-0.12011878 8:0.21448855 9:-0.35164456 10:-0.06423822 11:0.00060089 12:0.0889919 13:0.148657 14:0.20236835 15:0.18362308 16:-0.49460095 17:-0.047818441 18:0.24723598 
-0 0 0 0 1 1:-0.68281436 2:-8.3195038 3:-5.2523997 4:0.081049993 5:0.045359721 6:0.05979303 7:-0.42354683 8:0.46423454 9:-0.37968515 10:-0.039547 11:0.00872851 12:0.05413895 13:0.010286118 14:0.016862424 15:0.016699989 16:-0.16210013 17:0.21939918 18:-0.12235914 
-0 0 0 0 1 1:-0.6787502 2:-8.2904861 3:-5.2930173 4:0.09522219 5:0.049094181 6:0.057066161 7:-0.42665475 8:0.32933885 9:-0.33087048 10:-0.04135211 11:0.00736621 12:0.05665887 13:0.010409008 14:0.023394504 15:0.014668795 16:-0.14940289 17:0.079189871 18:-0.07513093 
-0 0 0 0 0.7692986382987094 1:-0.70044165 2:-8.2367362 3:-5.3705954 4:0.12609096 5:0.070808076 6:0.093026434 7:-0.025874944 8:-0.15574278 9:-0.6115756 10:-0.03870704 11:0.00778162 12:0.05118547 13:0.015046868 14:0.038848161 15:0.024700012 16:0.020065475 17:-0.24264273 18:-0.26041948 
-0 0 0 0 1 1:-0.79297162 2:-8.2370235 3:-5.3606715 4:0.079114392 5:0.047223367 6:0.053562273 7:-0.31054211 8:0.39767353 9:-0.27058746 10:-0.03777854 11:0.00862773 12:0.05392827 13:0.0083690181 14:0.014708088 15:0.0099429301 16:0.046371659 17:-0.040325961 18:-0.15579541 
-0 0 0 0.2437195929875895 1 1:-0.45361146 2:-9.683732 3:-2.8763879 4:2.2697958 5:2.3087625 6:1.7094249 7:-0.47417934 8:-0.34744094 9:0.050598695 10:-0.01234823 11:0.36932835 12:0.21138793 13:0.71409265 14:0.85821397 15:0.38524206 16:-0.025029913 17:-0.39674563 18:0.44661207 
-0 1 0 0 0 1:-0.81673407 2:-9.5864555 3:-2.2087708 4:1.2497176 5:1.4778608 6:1.8152334 7:0.044155627 8:-0.062984781 9:-0.037894727 10:-0.06977264 11:-0.46037944 12:0.00114025 13:0.91977596 14:0.76366325 15:0.66055438 16:-0.091376314 17:-0.35125684 18:0.16225107 
-0 1 0 0 0 1:-0.29762919 2:-9.8697374 3:-1.0151295 4:1.0202895 5:1.4710664 6:1.3647988 7:-0.25971379 8:-0.25483646 9:0.1842031 10:0.03017719 11:-0.04954198 12:0.0599208 13:0.68523368 14:0.57231016 15:0.48847124 16:0.26480023 17:-0.2285383 18:0.50600189 
-0 -0 1 0 0 1:0.58992532 2:-9.479237 3:-2.6380212 4:2.2515392 5:4.0165011 6:3.4902343 7:0.35530306 8:-0.29543884 9:0.102091 10:-0.11800999 11:0.26700611 12:0.21384252 13:1.7892477 14:1.2868671 15:0.53950471 16:-0.43563885 17:-0.36224026 18:0.44817804 
-0 -0 0 0.2614169444748946 0 1:0.0601364 2:-9.6154732 3:-1.4066594 4:2.9133031 5:5.2867706 6:3.6127193 7:0.39882293 8:-0.024498245 9:0.40484886 10:0.29820608 11:-0.0975766 12:0.10110432 13:1.694792 14:1.4495156 15:0.47760502 16:-0.3472988 17:-0.34826824 18:0.40725742 
-0.01295018023609585 -1 0 0 0 1:-0.62320469 2:-4.5438177 3:2.4347655 4:1.9087466 5:6.4760851 6:5.1924205 7:0.058062332 8:-0.28210882 9:0.78110935 10:-0.2765512 11:0.2444525 12:0.14291629 13:1.2205372 14:1.2193755 15:0.36880703 16:-0.31797836 17:0.14622412 18:0.11345812 
-0 -1 0 0 0 1:-0.07502835 2:-9.731161 3:-1.3247058 4:1.4142222 5:1.6229473 6:1.7766295 7:0.57058635 8:-0.37173939 9:-0.20705927 10:-0.06892851 11:0.30635674 12:0.11909775 13:0.85642084 14:0.74323484 15:0.32801711 16:-0.37699418 17:0.32855828 18:0.40999377 
-0 -0 1 0.1077623627464987 0 1:-0.27888854 2:-9.6443113 3:-2.1373158 4:2.7155268 5:3.9462686 6:2.9414679 7:0.48983682 8:-0.060589863 9:-0.063100879 10:-0.03349212 11:0.19432099 12:0.10535944 13:1.6584398 14:1.181669 15:0.44310403 16:-0.59186954 17:-0.017590409 18:0.331394 
-0 -0 0 1 0 1:1.0584227 2:-9.3994503 3:-2.1308275 4:1.4925412 5:2.4518733 6:2.2524804 7:0.098278031 8:-0.30603516 9:0.049795079 10:0.1554255 11:-0.09963214 12:0.03306001 13:1.1599632 14:0.68798556 15:0.36175456 16:-0.27555298 17:0.036644693 18:0.26188302 
-0 -1 0 0 0.5703648988584307 1:1.1547295 2:-9.6375178 3:-1.8467555 4:1.1385399 5:1.2287401 6:1.8403753 7:0.11969106 8:-0.018125891 9:-0.13319427 10:-0.21584923 11:0.26052477 12:0.17676 13:0.79431031 14:0.71394975 15:0.5126731 16:-0.11818489 17:-0.39383232 18:0.6575503 
-0 -1 0 0 0 1:0.45218691 2:-9.6979773 3:-1.4449725 4:1.0425249 5:1.1409601 6:1.7322378 7:0.3670541 8:-0.1836947 9:-0.0099364669 10:0.05919589 11:-0.31366708 12:-0.0568013 13:0.90483907 14:0.65723164 15:0.26605156 16:-0.27112872 17:0.023118091 18:0.28368307 
-0 -1 0 0 0 1:0.77943233 2:-9.7472202 3:-0.9760921 4:1.2056466 5:1.2342823 6:1.9532868 7:0.24389763 8:-0.13166492 9:-0.34097337 10:-0.01869551 11:-0.22397066 12:-0.00445323 13:0.89821373 14:0.60541374 15:0.27040379 16:-0.22778537 17:-0.1017468 18:0.48964138 
-0 -1 0 0 0 1:1.1444823 2:-9.8135394 3:-0.75223424 4:1.1027864 5:1.1586095 6:1.4502682 7:0.22595386 8:-0.33097403 9:-0.53739408 10:-0.25545767 11:-0.26575388 12:-0.01278237 13:1.1053406 14:0.61259198 15:0.29018819 16:-0.28231771 17:0.028955512 18:0.51136559 
-0 -1 0 0 0 1:0.75035482 2:-9.7995393 3:-0.75726811 4:0.84202889 5:0.94446525 6:1.5982542 7:0.25251076 8:-0.28394258 9:-0.583749 10:-0.08808675 11:0.09509036 12:0.00038785 13:0.92143768 14:0.55298835 15:0.2797079 16:-0.24462942 17:-0.083243616 18:0.52410811 
-0 -1 0 0 0 1:0.87560148 2:-9.6339265 3:-1.2125315 4:1.0046739 5:0.77269003 6:1.6270991 7:-0.077451137 8:-0.32655728 9:-0.42257514 10:-0.02747375 11:0.56854454 12:0.21783761 13:0.68673598 14:0.64524724 15:0.45529311 16:-0.29971444 17:-0.14550184 18:0.63185072 
-0 -1 0 0 0 1:0.79422253 2:-9.6182145 3:-1.4704409 4:1.2104586 5:1.4490555 6:2.0508814 7:0.050072324 8:-0.3642571 9:0.0047778414 10:0.10265279 11:0.36678793 12:0.1687088 13:0.91362374 14:0.72853721 15:0.43159556 16:-0.2390963 17:-0.16210076 18:0.66976458 
-0 -1 0 0 0 1:0.92063042 2:-9.6802124 3:-1.0932165 4:0.8931956 5:1.1834915 6:1.9190212 7:0.2687549 8:-0.31434838 9:-0.28232532 10:0.0254181 11:-0.05501758 12:0.02714987 13:0.94110518 14:0.5933589 15:0.27370656 16:-0.25470117 17:-0.1845188 18:0.5092109 
-0 -1 0 0 0 1:0.83938318 2:-9.7258638 3:-0.98823665 4:1.0043765 5:0.97826853 6:1.7585537 7:0.10217137 8:-0.28128434 9:-0.19200007 10:0.17083148 11:-0.38548043 12:-0.0547641 13:0.74947507 14:0.4525079 15:0.1976343 16:-0.12016371 17:-0.036452037 18:0.29067151 
-0 -1 0 0 0 1:0.90428989 2:-9.8010478 3:-1.0937432 4:0.84336437 5:0.87141438 6:1.7065628 7:0.10225382 8:-0.2959394 9:-0.31368295 10:0.01958438 11:0.57466228 12:0.1142623 13:0.79872081 14:0.56354696 15:0.40713804 16:-0.12253877 17:-0.0038408547 18:0.594419 
-0 -1 0 0 0 1:0.82561052 2:-9.8257439 3:-0.83311038 4:0.9799806 5:1.3131805 6:1.8787226 7:0.11263934 8:-0.43112199 9:-0.23429914 10:-0.03300811 11:0.64933151 12:0.12520601 13:0.89828573 14:0.78804895 15:0.48930118 16:-0.30158861 17:-0.11402503 18:0.61160992 
-0 -1 0 0 0 1:0.53371546 2:-9.8877358 3:-0.92749584 4:0.94947554 5:1.1563657 6:1.9255769 7:0.0016381032 8:-0.15718762 9:-0.19256714 10:0.04611115 11:0.20264837 12:0.09282099 13:0.86765337 14:0.69242628 15:0.46841796 16:-0.35548661 17:-0.35522132 18:0.72746384 
-0 -1 0 0 0 1:1.0307876 2:-9.8031665 3:-0.80754627 4:1.1590075 5:1.2141926 6:1.9080632 7:0.27917831 8:-0.45072 9:-0.18237222 10:-0.08681315 11:-0.37076776 12:0.01558929 13:1.0184428 14:0.7231971 15:0.23534054 16:-0.3235426 17:0.32228847 18:-0.12892825 
-0 -1 0 0 0 1:0.82991411 2:-9.7005811 3:-0.8023928 4:0.9583145 5:1.540399 6:1.7940269 7:0.15368124 8:-0.15977006 9:-0.43628287 10:-0.06296191 11:0.48109303 12:0.07769287 13:1.0106763 14:0.6730828 15:0.430604 16:-0.16137812 17:-0.20625362 18:0.60094182 
-0 -1 0 0 0 1:0.51217955 2:-9.7099963 3:-0.85468207 4:1.1532334 5:1.2841289 6:2.3263598 7:-0.078752606 8:-0.18159617 9:-0.19080622 10:0.1419101 11:-0.26062561 12:0.00316122 13:0.85753615 14:0.84587984 15:0.39653291 16:-0.34705133 17:-0.38494921 18:0.56129811 
-0 -0.03175860823591436 0 0 0 1:0.73210499 2:-9.9302928 3:-0.88653698 4:1.0956645 5:1.4367205 6:2.0140501 7:0.040872623 8:-0.22990063 9:-0.20605027 10:-0.00394923 11:0.35830913 12:0.1299096 13:0.93602415 14:1.0536053 15:0.47563594 16:-0.20840924 17:-0.14949479 18:0.52735989 
-0 -0.3517511629679912 0 0 0 1:0.81444755 2:-9.9441133 3:-0.50611032 4:0.98024111 5:1.4081774 6:2.0027701 7:0.2610163 8:-0.22540167 9:-0.25713797 10:-0.09502318 11:-0.03442227 12:0.03485598 13:0.99281665 14:0.60463802 15:0.35608444 16:-0.09707217 17:-0.19578009 18:0.50635148 
-0 -1 0 0 0 1:0.76847294 2:-9.7816127 3:-1.1450569 4:1.1421596 5:1.5266165 6:2.3398073 7:0.090587248 8:-0.25106402 9:0.04396111 10:0.2019582 11:0.05137373 12:0.09132738 13:0.80803243 14:0.71846799 15:0.35076912 16:-0.17260993 17:0.028144441 18:0.40280398 
-0 -0.1505543440758365 0 0 0 1:0.47001168 2:-9.9429401 3:-1.0449314 4:1.8126491 5:2.6094993 6:2.6849101 7:0.020595458 8:0.25367174 9:0.020985619 10:-0.10295771 11:-0.05299055 12:0.15260023 13:1.183584 14:0.71744371 15:0.81431054 16:-0.30385163 17:-0.93525756 18:0.29151486 
-0 -0 0 1 0 1:-0.38529886 2:-10.223271 3:-1.4403337 4:3.1517649 5:4.9912521 6:3.5616212 7:0.45687093 8:0.31680968 9:0.33180991 10:-0.08445159 11:0.10190351 12:0.16995493 13:1.5170157 14:1.2750294 15:0.97848474 16:-0.29735038 17:-0.83809671 18:0.35871877 
-0 -1 0.9140377760556574 1 0 1:0.84205269 2:-9.5026164 3:-3.0306823 4:2.5717205 5:4.053403 6:2.3529384 7:0.40807429 8:0.15459082 9:0.045527956 10:0.06840471 11:-0.21143578 12:-0.0611965 13:1.2922631 14:0.88047535 15:0.52201973 16:-0.37000098 17:0.67762433 18:-0.31510175 
-0 -1 0 0 0 1:1.1610381 2:-9.7722336 3:-0.45940545 4:1.3430068 5:0.95544071 6:1.528415 7:0.34318479 8:-0.14426948 9:-0.055756143 10:-0.05763217 11:-0.52964457 12:-0.09364257 13:0.77970032 14:0.90805555 15:0.36143752 16:-0.21746682 17:0.20975311 18:0.5164511 
-0 -0.7524699549166498 1 0 0 1:2.1022887 2:-8.7838352 3:-2.13725 4:2.7023077 5:3.0763195 6:2.6087215 7:0.76026641 8:-0.78162333 9:-0.69997383 10:-0.42334825 11:0.07948164 12:0.02741543 13:1.4020484 14:1.09773 15:0.42473844 16:-0.75103164 17:0.18406441 18:0.085208879 
-0 -1 0 0 0 1:1.1663533 2:-9.6721918 3:-1.5119085 4:1.335314 5:0.98938467 6:1.38687 7:0.45251678 8:-0.56020619 9:-0.35891801 10:-0.07815135 11:0.02068283 12:-0.03895817 13:0.67643713 14:0.57475761 15:0.27001281 16:-0.54714263 17:0.33701948 18:-0.056355551 
-0 -1 0 0 0 1:1.5266987 2:-9.5488605 3:-1.5857337 4:1.9269949 5:1.9168007 6:2.1030287 7:0.44869715 8:-0.51248635 9:-0.17315488 10:-0.03647191 11:-0.06765139 12:0.02943122 13:1.1267119 14:0.78288365 15:0.38063772 16:-0.47064079 17:0.51550577 18:-0.22745627 
-0 -0 1 0 0 1:1.2981661 2:-9.5213032 3:-1.8693088 4:1.7967398 5:2.0622781 6:2.2376278 7:0.60895382 8:-0.51492844 9:-0.39890932 10:-0.01905926 11:-0.13444028 12:-0.0034913 13:1.2205743 14:0.89957081 15:0.36882444 16:-0.56474098 17:0.62558777 18:-0.13300624 
-0 -1 0 1 0 1:1.6527114 2:-9.2461317 3:-2.5648604 4:1.6917725 5:1.7737511 6:1.8821276 7:0.67384822 8:-0.28797805 9:-0.085254593 10:-0.17980232 11:0.67034415 12:0.19971597 13:0.99873589 14:0.87062269 15:0.42971411 16:-0.3411759 17:0.35025005 18:0.34342347 
-0 -0 0 1 0 1:1.1110472 2:-9.6022452 3:-1.6934788 4:1.9446685 5:3.4833698 6:2.8924129 7:0.29750555 8:-0.27719396 9:0.28692682 10:0.17175674 11:0.05360852 12:0.15047415 13:1.5096159 14:1.0719278 15:0.36998701 16:-0.32196609 17:0.40440368 18:0.25723342 
-0 -1 0 0 0 1:1.019888 2:-9.867385 3:-1.084358 4:1.1060394 5:1.3383848 6:2.1661892 7:0.26671841 8:-0.14027486 9:0.11240422 10:0.15601169 11:-0.50356467 12:-0.11454663 13:0.75906539 14:0.80873745 15:0.25843244 16:-0.18459813 17:0.093879721 18:0.13742924 
-0 -0 1 0.9695918769223866 0 1:1.2905466 2:-9.4007612 3:-2.4728093 4:2.2999388 5:3.3878588 6:2.7457778 7:0.20864432 8:-0.45715808 9:-0.42891506 10:-0.06456262 11:-0.58249774 12:-0.13761294 13:1.9649687 14:1.284475 15:0.61862065 16:-0.4954885 17:0.61343462 18:-0.35837406 
-0 -0.5284360150347684 1 0 0 1:0.992211 2:-9.3630584 3:-1.0814131 4:1.4466033 5:1.991779 6:2.024231 7:0.14590765 8:-0.54013345 9:-0.20720213 10:-0.14900558 11:-0.31143243 12:-0.04021349 13:1.2207649 14:1.022172 15:0.32436801 16:-0.61325882 17:0.47186799 18:-0.078208353 
-0 -0 1 1 0 1:1.1133817 2:-9.3209026 3:-2.5221598 4:2.0299647 5:2.8137646 6:2.4946843 7:0.21246935 8:-0.4923533 9:-0.21686476 10:0.07999551 11:-0.64832455 12:-0.07568959 13:1.5464443 14:1.2070614 15:0.43498889 16:-0.56339557 17:0.44753923 18:-0.13947949 
-0 -0 1 0 0 1:1.0640192 2:-9.4345494 3:-1.9067363 4:2.023794 5:2.912389 6:2.4904964 7:0.16823946 8:-0.34606755 9:-0.23480128 10:-0.14334281 11:-0.6109793 12:-0.12340118 13:1.5094819 14:1.2332432 15:0.43632797 16:-0.57417826 17:0.38640204 18:-0.13159723 
-0 -0 1 0 0 1:1.4700877 2:-8.955272 3:-2.3844035 4:1.9753782 5:2.9320099 6:2.7464574 7:0.31932662 8:-0.47836588 9:-0.39999104 10:-0.07205493 11:-0.43280213 12:-0.11680385 13:1.5160458 14:1.203468 15:0.47366129 16:-0.49374779 17:0.31615169 18:-0.15236358 
-0 -1 0 0 0 1:0.9699749 2:-9.7582274 3:-0.82808856 4:1.1582093 5:1.2560693 6:1.6395428 7:0.1915519 8:-0.50006029 9:-0.34624976 10:-0.13532218 11:-0.25801223 12:-0.06740619 13:0.81575528 14:0.69207677 15:0.28726692 16:-0.015134739 17:0.60210428 18:-0.006497572 
-0 -0.8503504859223029 0 0 0 1:1.2585301 2:-9.7471303 3:-1.2857162 4:1.8692004 5:1.9069174 6:2.2283942 7:0.11954417 8:-0.1039012 9:0.16908424 10:-0.16800652 11:-0.2206547 12:-0.1037313 13:1.1459061 14:0.99848178 15:0.22613755 16:-0.110996 17:0.34030653 18:0.35516 
-0 -1 0 0 0 1:1.1860815 2:-9.6752444 3:-0.85789036 4:1.2723366 5:1.5475861 6:1.9735484 7:0.26746007 8:-0.36609983 9:-0.095702864 10:-0.04457198 11:-0.59805959 12:-0.12551166 13:0.91945428 14:1.005359 15:0.33791642 16:-0.20512609 17:0.29861682 18:-0.061613071 
-0 -0.5349078971618891 0 0 0 1:0.82695727 2:-9.9024362 3:-0.83179947 4:1.9825213 5:2.7089941 6:1.9868742 7:0.45869707 8:-0.24974424 9:-0.0074723821 10:-0.15583497 11:0.21720731 12:0.11738974 13:1.2535325 14:1.0667207 15:0.35417527 16:-0.41071748 17:-0.077469086 18:0.44351346 
-0 -1 0 0 0 1:1.1056184 2:-9.7723891 3:-1.0003095 4:1.6159934 5:1.9002549 6:2.0446459 7:0.28893035 8:-0.20901309 9:0.00056915883 10:-0.27087617 11:0.20759533 12:0.02471226 13:1.0468732 14:0.79973274 15:0.46641004 16:-0.25898297 17:0.40719603 18:0.30108011 
-0 -1 0 1 0 1:1.313471 2:-9.6478129 3:-2.54934 4:2.5327916 5:3.5532876 6:2.4256959 7:0.45423403 8:-0.10453899 9:0.097395672 10:-0.0292882 11:0.40089763 12:0.06862431 13:1.1819035 14:0.87425762 15:0.53617644 16:-0.21428004 17:0.18531481 18:0.38281793 
-0 -0 0 1 0 1:0.80577458 2:-10.309067 3:-2.757875 4:2.6678529 5:4.0724892 6:2.6025552 7:0.24782013 8:-0.088443942 9:0.3479141 10:-0.36932937 11:0.56836316 12:0.05273877 13:1.4033331 14:1.1565982 15:0.7731113 16:-0.32536028 17:0.35728561 18:0.41590216 
-0 -0.1157841277259246 0 1 0 1:1.5662449 2:-9.3557023 3:-1.9362747 4:2.4053629 5:3.6994686 6:2.913242 7:0.38225448 8:-0.079449628 9:0.31240789 10:-0.2459315 11:0.53854391 12:0.01987116 13:1.3369856 14:1.0027069 15:0.58744765 16:-0.34730429 17:0.43806852 18:0.17575928 
-0 -0 0 1 0 1:1.4498926 2:-8.9307912 3:-2.2468207 4:2.3318067 5:4.2427891 6:3.1617122 7:0.28065264 8:-0.33425748 9:0.30651999 10:-0.09545708 11:0.413176 12:0.08315378 13:1.4826409 14:1.1399829 15:0.65630071 16:-0.36617219 17:0.35490747 18:0.24894588 
-0 -1 0 0 0 1:1.4213777 2:-9.9299934 3:-1.0876919 4:1.8568066 5:1.8162821 6:2.0174854 7:0.42978344 8:-0.37699222 9:0.082268497 10:0.00045792 11:-0.20870013 12:-0.0794036 13:1.0074742 14:0.75588998 15:0.40783971 16:-0.40625799 17:0.1259613 18:0.36946771 
-0 -1 0 0 0 1:1.1612178 2:-9.7767586 3:-0.78535799 4:1.3292838 5:1.1589708 6:1.6634748 7:0.10595582 8:-0.206938 9:-0.27522702 10:-0.01099889 11:-0.59060388 12:-0.11214294 13:0.87717932 14:1.0003767 15:0.30702629 16:-0.060668644 17:0.15730908 18:0.12923301 
-0 -0 0 1 0 1:0.87127395 2:-9.4186398 3:-2.6319998 4:2.3132106 5:4.241045 6:2.7455739 7:0.4549978 8:-0.28771012 9:0.028012162 10:-0.06451352 11:0.08853271 12:0.00604454 13:1.5528432 14:0.9958212 15:0.62011644 16:-0.32272371 17:0.51945644 18:-0.0052474411 
-0 -0 0 1 0 1:0.7887937 2:-10.225037 3:-1.4270878 4:2.6095231 5:5.0157818 6:3.5278794 7:0.16599877 8:0.010290613 9:0.40440734 10:-0.36342817 11:0.18409037 12:0.15170535 13:2.0227681 14:1.4169857 15:0.42904465 16:-0.32808508 17:0.082972603 18:0.25280058 
-0 -0 1 0 0 1:1.0098683 2:-9.2136962 3:-2.1090523 4:2.6314849 5:3.4723442 6:3.349381 7:0.27206697 8:-0.6385819 9:-0.25482674 10:0.29948888 11:-0.35563659 12:0.17848867 13:1.9777201 14:1.3967942 15:0.41616927 16:-0.64257695 17:0.23546143 18:0.15552863 
-0 -0 0 1 0 1:1.0924144 2:-9.187785 3:-2.3608265 4:2.4460389 5:4.5685677 6:3.3295772 7:0.15544958 8:-0.21470943 9:0.33079941 10:-0.14717581 11:0.08069832 12:0.11880109 13:1.843176 14:1.4408303 15:0.5007363 16:-0.3714639 17:0.16720937 18:0.16839476 
-0 -0 1 0 0 1:1.5055638 2:-9.3553432 3:-3.3970969 4:2.7237312 5:3.6657999 6:3.8397943 7:0.2746603 8:-0.59341958 9:-0.080699342 10:0.2142061 11:-0.06238769 12:0.23397965 13:1.7065873 14:1.3175845 15:0.54018134 16:-0.48212685 17:0.25688473 18:0.19604152 
-0 -0 0 1 0 1:0.83649221 2:-9.7356801 3:-1.4404295 4:2.0690004 5:4.3644159 6:3.1694353 7:0.2464561 8:0.02404619 9:0.40912544 10:-0.58864192 11:0.22447158 12:0.07728979 13:1.7874197 14:1.2039016 15:0.46970909 16:-0.46662353 17:0.045866779 18:0.31302085 
-0 -0 1 0 0 1:0.89036769 2:-9.4251402 3:-1.8731576 4:2.8835249 5:4.2460798 6:4.0696791 7:0.092885251 8:-0.49770536 9:0.02673926 10:-0.14130538 11:-0.015797 12:0.1247051 13:2.2169228 14:1.7184307 15:0.38942511 16:-0.60840807 17:0.2869525 18:-0.061843914 
-0 -0 1 0 0 1:1.3149675 2:-9.5221292 3:-2.4245721 4:2.6083501 5:4.1126618 6:4.2210026 7:0.1638101 8:-0.39898384 9:0.07147163 10:-0.09898154 11:0.23842682 12:0.21635925 13:1.9834043 14:1.6600873 15:0.43054652 16:-0.59054201 17:0.27336962 18:0.020134085 
-0 -0 1 0 0 1:0.57567986 2:-9.9340516 3:-1.7692253 4:2.0417543 5:3.9249037 6:3.3308813 7:0.26840331 8:-0.23529745 9:-0.0052339218 10:-0.03083649 11:-0.18949948 12:0.09207571 13:1.9141201 14:1.600135 15:0.40765178 16:-0.50881932 17:0.21374446 18:-0.047272819 
-0 -0 1 0 0 1:1.3600862 2:-9.3724916 3:-1.9231306 4:2.5785004 5:3.7702351 6:3.5917534 7:0.2105119 8:-0.45061101 9:0.10780886 10:0.01994477 11:0.31976655 12:0.14136339 13:1.8891668 14:1.6920901 15:0.45051891 16:-0.5440011 17:0.32113536 18:-0.13252968 
-0 -0 1 0 0 1:0.575195 2:-9.1775318 3:-1.3831064 4:1.9757495 5:3.5930751 6:3.2893532 7:0.38677911 8:-0.30826096 9:0.046983331 10:-0.24449886 11:0.29378042 12:0.13630546 13:1.9064981 14:1.6771788 15:0.35907793 16:-0.52561262 17:0.1846602 18:0.24638657 
-0 -0 0.9930564072517019 0 0 1:0.92522721 2:-9.6271689 3:-2.105078 4:1.6738503 5:2.7465786 6:2.8701451 7:0.31457105 8:-0.4388055 9:0.011477382 10:-0.04098123 11:0.10315698 12:0.09403053 13:1.4613337 14:1.1741762 15:0.4634123 16:-0.47344483 17:0.45404365 18:0.061826675 
-0 -0.3853001823615965 1 1 0.06199902397405378 1:1.522826 2:-8.0270939 3:-2.8234402 4:1.7999203 5:3.2332014 6:2.4789259 7:0.58688563 8:-0.62432674 9:-0.41994728 10:-0.5635184 11:0.90607824 12:0.10028879 13:1.5141941 14:1.0817743 15:0.52357413 16:-0.73525555 17:0.37971779 18:-0.076035387 
-0 -1 0 0 0 1:0.81082034 2:-9.8895613 3:-1.0129388 4:1.6421769 5:1.6087991 6:2.0121737 7:0.39525699 8:-0.23945834 9:-0.14116539 10:-0.07916332 11:0.17701659 12:0.11697452 13:0.83974972 14:0.87224992 15:0.43767631 16:-0.31158284 17:-0.17576993 18:0.5627673 
-0 -1 1 1 0.1843569780215488 1:1.7407642 2:-8.9781307 3:-3.0161854 4:2.2939352 5:3.6633933 6:2.6801823 7:-0.25625821 8:-0.12622912 9:0.2133523 10:-0.08003251 11:-0.46089483 12:-0.05277266 13:1.4671409 14:0.96590844 15:0.44670131 16:-0.34842541 17:-0.053260246 18:-0.097504778 
-0 -0.235164520374477 0 0.3167470868001279 0 1:2.4424269 2:-9.178292 3:-1.6405908 4:1.7631463 5:3.0296904 6:2.9880915 7:-0.16630361 8:-0.3595374 9:0.46388908 10:0.09884414 11:0.32866079 12:0.16069422 13:1.2827398 14:0.64214389 15:0.48977278 16:-0.099942416 17:-0.44038434 18:0.50908079 
-0 -0 0.311631999784127 0 0 1:1.121869 2:-10.495402 3:-3.8344278 4:3.5103326 5:5.4990058 6:6.3581618 7:0.35003967 8:-0.40763459 9:0.24717204 10:-0.02984687 11:-0.17738001 12:0.15314082 13:2.3189186 14:1.5307025 15:0.52979218 16:-0.68581277 17:-0.40675034 18:0.5051703 
-0 -1 0.6201572447895897 0 0 1:1.30976 2:-9.4525417 3:-1.7827585 4:1.7997742 5:1.9334034 6:2.0666713 7:0.31463718 8:-0.29323872 9:-0.26450384 10:-0.03291957 11:-0.45233044 12:-0.10499252 13:1.1024017 14:1.0231286 15:0.76410093 16:-0.36195103 17:-0.11153904 18:0.30867278 
-0 -0 1 0 0 1:1.215195 2:-9.1219983 3:-1.3255677 4:2.1750841 5:3.841345 6:2.9155561 7:0.2654768 8:-0.37859109 9:-0.059979017 10:0.54681301 11:-0.44676548 12:0.1661187 13:2.1190107 14:1.3473174 15:0.38229713 16:-0.75803335 17:0.2579287 18:-0.16465019 
-0 -1 0 1 0.6190410797002699 1:1.1576504 2:-9.6908486 3:-1.4686033 4:1.0802437 5:1.2190687 6:1.5888887 7:0.22366509 8:0.32414247 9:0.031662329 10:-0.07457139 11:-0.10519105 12:0.01619404 13:0.67604971 14:0.52450815 15:0.31308108 16:-0.41558128 17:-0.14880746 18:0.58313419 
-0 -1 0 0 0 1:0.81990636 2:-9.7969417 3:-1.1530176 4:1.392748 5:1.5854289 6:1.747694 7:0.24437772 8:-0.17524151 9:0.071884671 10:0.02164909 11:-0.25872588 12:-0.00742506 13:1.0254747 14:0.59847689 15:0.28999208 16:-0.23295897 17:0.31175386 18:0.33323526 
-0 -0 0 1 0 1:0.60545178 2:-9.5110261 3:-1.1981843 4:1.8284713 5:3.5997356 6:2.5543852 7:0.26150316 8:0.27837185 9:0.27229286 10:-0.46216843 11:0.09197186 12:0.15284459 13:1.6909353 14:0.99405777 15:0.45316546 16:-0.45069389 17:0.1701789 18:0.5301199 
-0 -0 0 0.3454234830561582 0 1:0.85575349 2:-10.05038 3:-1.4628991 4:3.4276929 5:4.5417656 6:3.4070927 7:0.17741673 8:-0.35780526 9:0.25273578 10:0.53543986 11:-0.40527947 12:0.16222764 13:1.7840332 14:1.3495789 15:0.51996216 16:-0.68099337 17:0.41836934 18:-0.1199808 
-0 -0 0 0.8036948102311418 0 1:1.5236161 2:-9.8952117 3:-1.4463852 4:3.159643 5:6.0760002 6:4.3071893 7:0.39219881 8:-0.10615981 9:0.35837888 10:0.04080695 11:-0.16198105 12:0.20305175 13:2.3468611 14:1.4263398 15:0.51042875 16:-0.65460889 17:0.17473765 18:0.066977366 
-0 -1 0 0 0 1:1.3981239 2:-9.8813852 3:-0.98436413 4:1.6097117 5:1.826045 6:2.0088814 7:0.12596542 8:-0.17078135 9:0.24448297 10:0.06417262 11:-0.09742164 12:0.0154 13:1.1127882 14:0.67388944 15:0.34713705 16:-0.39118461 17:0.25084369 18:0.3243755 
-0 -0 0 1 0 1:1.3207794 2:-10.022278 3:-1.8493712 4:3.0565903 5:6.0406777 6:4.1745655 7:0.095604564 8:-0.028843885 9:0.22818278 10:-0.01146169 11:-0.0730726 12:0.07842602 13:2.2516507 14:1.1994906 15:0.67102626 16:-0.59617266 17:0.069783152 18:0.11339435 
-0 -1 0 0 0 1:1.5680525 2:-9.5231767 3:-0.80021403 4:1.4711118 5:1.7364189 6:1.9043867 7:0.20225151 8:-0.26784381 9:0.19740357 10:0.09737009 11:-0.74355217 12:-0.15766413 13:0.9741495 14:0.85120154 15:0.36910892 16:-0.15360731 17:0.47604423 18:0.31193193 
-0 -0 0 1 0 1:1.4124473 2:-9.6976062 3:-2.4778012 4:2.2286447 5:3.9143739 6:3.1939949 7:0.13330103 8:-0.22122797 9:0.15523451 10:-0.13388825 11:0.73592991 12:0.23556505 13:1.6282509 14:0.97499816 15:0.63837764 16:-0.38612153 17:0.030730642 18:0.51653677 
-0 -0 0 1 0 1:1.4526638 2:-9.8036155 3:-1.7281408 4:1.6810158 5:3.3849427 6:2.9745749 7:-0.17351141 8:-0.16287877 9:0.22046727 10:-0.28375788 11:0.70506279 12:0.21566005 13:1.466355 14:1.0320861 15:0.61566114 16:-0.45595342 17:-0.15754821 18:0.57932818 
-0 -1 0 0 0 1:1.5164155 2:-9.5534992 3:-0.93066213 4:1.8677027 5:2.009304 6:2.4856002 7:-0.027093223 8:-0.4275399 9:0.0033565559 10:-0.21158415 11:0.0630679 12:0.06432421 13:1.0913491 14:0.99377364 15:0.63309825 16:-0.37514727 17:-0.088908604 18:0.5244135 
-0 -1 0 0 0 1:1.1687415 2:-9.612205 3:-0.78204202 4:1.1758836 5:1.5443307 6:2.3979169 7:0.21055556 8:-0.047039219 9:0.016129758 10:-0.01585227 11:-0.05716902 12:0.05049956 13:0.99992293 14:0.59278795 15:0.32983094 16:-0.20451919 17:-0.56931285 18:0.38255612 
-0 -1 0 0 0 1:1.1692084 2:-10.032669 3:-0.68658518 4:1.1067356 5:1.0931484 6:1.2497348 7:0.33603281 8:-0.0055049375 9:-0.086357469 10:-0.24379657 11:0.36618805 12:0.14840297 13:0.97569107 14:0.91615794 15:0.41684048 16:0.066228178 17:-0.084651372 18:0.41208154 
-0 -0 1 0 0 1:1.3130221 2:-9.9199497 3:-2.137669 4:1.9070336 5:3.6540713 6:3.5082684 7:0.14932458 8:-0.33554418 9:-0.20057914 10:-0.04496904 11:-0.25827812 12:0.05713967 13:1.9117495 14:1.0501851 15:0.38070219 16:-0.61195158 17:0.22023948 18:0.21418844 
-0 -0 1 0.2554122044558241 0 1:1.6932632 2:-8.8459109 3:-2.19835 4:2.237093 5:4.5273559 6:3.1575221 7:0.21734007 8:-0.35140308 9:-0.36310987 10:-1.133253 11:0.09250828 12:-0.0700974 13:2.2006809 14:1.4621333 15:0.47101207 16:-0.54298211 17:0.50657158 18:-0.44995049 
-0 -0 0.09825868962698915 1 0 1:1.0643963 2:-9.2310722 3:-2.4113442 4:2.3285231 5:3.7639676 6:2.602376 7:0.2358513 8:-0.25082659 9:0.14451559 10:-0.09685601 11:0.27190711 12:0.06822998 13:1.753391 14:0.86770319 15:0.63379372 16:-0.39557603 17:0.52572912 18:-0.083128322 
-0 -0 0 1 0 1:1.3380116 2:-9.2299707 3:-2.0153971 4:2.3054538 5:4.1498974 6:3.5841761 7:0.32243382 8:-0.079400459 9:0.1669979 10:-0.13565205 11:0.09839085 12:0.15004918 13:1.404077 14:0.81619684 15:0.51052713 16:-0.40632432 17:0.26458637 18:0.019077159 
-0 -1 0 0 0 1:0.56011758 2:-9.9369905 3:-0.3160945 4:1.0843333 5:1.3303422 6:1.6991391 7:0.37662645 8:-0.35116568 9:-0.0014293247 10:0.10859939 11:0.012717 12:0.00416543 13:0.9134426 14:0.69504685 15:0.21269757 16:-0.37079384 17:-0.020303235 18:0.16088399 
-0 -1 0 0 0 1:0.92226442 2:-9.8460947 3:-0.17953524 4:1.1579679 5:1.0994438 6:1.5377565 7:0.3845184 8:-0.12078793 9:-0.11004128 10:-0.3360281 11:-0.26442032 12:-0.00829619 13:1.0028222 14:1.3653442 15:0.51768537 16:-0.35235876 17:-0.0064883522 18:0.47924242 
-0 -1 0 0 0 1:0.65604121 2:-9.9381157 3:-0.40057984 4:1.0816381 5:1.6638553 6:1.7719379 7:0.22832189 8:-0.31437827 9:0.0008165514 10:-0.08710053 11:-0.05102371 12:0.08369401 13:1.0562738 14:0.70428073 15:0.26809738 16:-0.48168396 17:-0.14816528 18:0.56317929 
-0 -0 1 0.8840035932100649 0 1:1.5195759 2:-9.5147431 3:-3.0937935 4:2.8873432 5:4.1668594 6:4.1430893 7:0.038893424 8:-0.55400998 9:0.11032762 10:0.02206725 11:-0.20115919 12:0.11748399 13:1.9222476 14:1.344428 15:0.48088218 16:-0.40850435 17:0.36791136 18:0.077162525 
-0 -0 1 1 0 1:1.3556928 2:-9.3604667 3:-2.7878025 4:2.2019377 5:3.8245513 6:2.884924 7:0.1398527 8:-0.33037001 9:0.057438454 10:-0.25803584 11:-0.18683124 12:0.00025589 13:1.8520513 14:1.2063095 15:0.43175136 16:-0.43355846 17:0.52539775 18:-0.16559571 
-0 -0 1 0 0 1:1.0723868 2:-9.7011915 3:-2.471289 4:1.7170655 5:3.0813212 6:3.2727758 7:0.03698816 8:-0.20658389 9:-0.08234931 10:-0.33235673 11:-0.1041721 12:0.06191051 13:1.8699876 14:1.0288325 15:0.32497463 16:-0.61337438 17:0.15824393 18:0.071588973 
-0 -0 0.8072227870947083 0 0 1:1.1521497 2:-9.6473519 3:-2.479956 4:2.2773638 5:3.3277843 6:3.3231072 7:0.21045639 8:-0.44959551 9:-0.093504396 10:-0.15872746 11:-0.32740059 12:0.06330633 13:1.7509193 14:1.0261114 15:0.39439667 16:-0.30237229 17:0.45088099 18:-0.01909863 
-0 -0 1 0 0 1:0.82155832 2:-9.6624414 3:-2.2362981 4:2.0570704 5:3.4312867 6:3.5428665 7:0.3204324 8:-0.52635106 9:-0.23669167 10:-0.39596922 11:-0.4329733 12:-0.02471934 13:1.8024934 14:1.0593651 15:0.3887265 16:-0.405682 17:0.26586337 18:-0.15542309 
-0 -0 0 1 0 1:1.3690224 2:-10.020123 3:-2.8053878 4:2.6317901 5:4.3231592 6:3.7449445 7:0.015772189 8:-0.39822787 9:0.21451047 10:0.10199291 11:-0.16049077 12:0.0495466 13:1.4344227 14:1.0224832 15:0.49847108 16:-0.25754093 17:0.30554328 18:0.042809866 
-0 -0 1 0 0 1:1.152455 2:-9.4858451 3:-2.1990324 4:2.5316085 5:4.0220463 6:3.4864165 7:0.46258203 8:-0.33734404 9:-0.18054124 10:-0.34423806 11:0.53957605 12:0.27866701 13:1.8877286 14:1.216642 15:0.56399292 16:-0.48801356 17:-0.034557799 18:0.39021865 
-0 -0 0 0.2873496938007899 0 1:0.94692477 2:-9.9861794 3:-1.4359105 4:2.1556744 5:4.4315928 6:3.5365379 7:0.14896468 8:0.060720144 9:0.39889234 10:-0.40111878 11:0.11448409 12:0.16945034 13:1.9592988 14:1.0380399 15:0.42678487 16:-0.28852676 17:0.20757214 18:0.49765706 
-0 -1 0 0 0 1:0.99813068 2:-9.9224457 3:-0.95253317 4:0.87910907 5:0.95563712 6:1.5876937 7:0.15895598 8:-0.17333855 9:-0.031180605 10:-0.20349169 11:-0.24029726 12:0.01444931 13:0.84236709 14:0.78038535 15:0.38202589 16:-0.27797015 17:0.013775436 18:0.4890445 
-0 -0 0 1 0 1:1.242471 2:-9.2307609 3:-2.0164745 4:2.0966293 5:4.105471 6:3.1748587 7:-0.038685499 8:-0.1763065 9:0.20711997 10:0.10837948 11:-0.48782908 12:0.10534307 13:1.6375208 14:1.0923537 15:0.46909059 16:-0.27958057 17:0.34903982 18:0.11339789 
-0 -0 1 0 0 1:1.0935995 2:-9.1107335 3:-1.9687281 4:2.3191725 5:3.3060821 6:3.404803 7:0.48891763 8:-0.40271267 9:-0.24493275 10:-0.0310139 11:0.05638782 12:0.18842988 13:1.8324163 14:1.2502954 15:0.44673261 16:-0.53994174 17:-0.054150508 18:0.33262188 
-0 -0 1 0 0 1:1.23214 2:-9.3074172 3:-2.9575455 4:2.3481215 5:3.3759046 6:3.374869 7:0.29284223 8:-0.37271925 9:-0.2685904 10:-0.21390388 11:0.28245673 12:0.2908964 13:1.8051137 14:1.212916 15:0.49202761 16:-0.53030002 17:0.13614081 18:0.30482211 
-0 -1 0 0 0 1:1.2013206 2:-9.6941946 3:-0.93075787 4:1.3257188 5:2.0245633 6:2.4990553 7:0.31186024 8:-0.15838851 9:0.32606043 10:-0.04447737 11:-0.26079483 12:-0.0184121 13:0.99474291 14:0.7726786 15:0.2882475 16:-0.13469393 17:0.27502413 18:0.52739215 
-0 -1 0 0 0 1:0.74087979 2:-9.7485907 3:0.06909065 4:1.4383979 5:1.5130214 6:1.979298 7:0.023655766 8:-0.41786826 9:-0.11749411 10:0.1629605 11:0.53779662 12:0.10966861 13:0.8511576 14:1.0847754 15:0.45565562 16:0.095921662 17:0.02651475 18:0.21387663 
-0 -1 0 0 0 1:0.79208574 2:-9.7693424 3:-0.32136769 4:2.2123477 5:2.6879575 6:2.3554401 7:0.51382306 8:-0.13001712 9:0.021865206 10:0.08165747 11:0.305402 12:0.07849927 13:1.1651147 14:0.94154789 15:0.38624166 16:-0.18195049 17:-0.44466127 18:0.39298169 
-0 -1 0 0 0 1:0.43704361 2:-9.864129 3:-0.98526188 4:1.2027626 5:1.5266619 6:1.9631705 7:0.058568261 8:0.1305952 9:-0.18040578 10:-0.02363744 11:0.08641292 12:0.0697517 13:0.98585754 14:0.7712779 15:0.72899513 16:-0.26214872 17:-0.6678741 18:0.40298465 
-0 -1 0 0 0 1:0.4301542 2:-9.7594784 3:-0.99851376 4:1.3344226 5:1.6260246 6:2.360706 7:0.15717436 8:0.19531052 9:-0.075805767 10:0.22441352 11:-0.02191787 12:-0.00150884 13:0.83149898 14:1.0551685 15:0.53687208 16:0.01867417 17:-0.56637673 18:0.24845517 
-0 -1 0 0 0 1:0.51825493 2:-9.7930571 3:-0.64662612 4:1.2117215 5:1.1753681 6:1.8760965 7:-0.084720252 8:-0.19416079 9:-0.26602131 10:0.0186436 11:0.02073582 12:0.08361524 13:0.69758672 14:0.73872457 15:0.55490327 16:0.023107959 17:-0.47021136 18:0.26180218 
-0 -0 0.3097193803507632 0.921251760906541 0.2068563419716797 1:0.17213117 2:-9.3852407 3:-2.259067 4:1.2063339 5:2.4661726 6:2.4900547 7:0.018211616 8:0.15659508 9:-0.074761057 10:0.05349039 11:-0.14539812 12:-0.01274263 13:1.1784473 14:0.8047533 15:0.5598954 16:-0.19281129 17:-0.83309467 18:0.21895433 
-0 -0.2816606179496667 0 0 0 1:0.11453866 2:-9.9865026 3:-0.97783384 4:1.84019 5:3.0716273 6:3.0142583 7:0.3360946 8:0.028089508 9:0.021988497 10:0.15006214 11:-0.49791625 12:0.01413231 13:1.0421845 14:0.79257741 15:0.5417527 16:-0.15461732 17:-0.77287367 18:0.24617829 
-0 -1 0 0 0 1:0.75406579 2:-9.3624479 3:-0.8433037 4:2.6596656 5:3.6967501 6:2.9167267 7:0.46689399 8:0.44481325 9:0.31647192 10:0.14047765 11:-0.02306937 12:0.11158982 13:1.3169601 14:1.0103409 15:0.71709044 16:-0.28253994 17:-0.68251052 18:0.63657698 
-0 -1 0 1 0.8023629277776145 1:1.903576 2:-9.5760586 3:-1.397292 4:1.5648616 5:0.96551773 6:1.0089206 7:0.30013256 8:-0.11385846 9:-0.13352853 10:-0.02090383 11:-0.12053591 12:0.00621863 13:0.48719048 14:0.51087016 15:0.33085925 16:0.34761912 17:0.25765891 18:-0.13394708 
-0 -0 0.8596017417936493 0 0 1:-0.32904709 2:-10.001191 3:-1.1917738 4:2.2796872 5:3.7653508 6:3.5885174 7:0.14724385 8:0.2524585 9:-0.23037165 10:-0.14171469 11:-0.04552172 12:0.12833972 13:1.8392856 14:1.303786 15:0.99558649 16:-0.58470458 17:-0.89306058 18:0.59287152 
-0 -0 1 0 0 1:-0.44967294 2:-9.5970737 3:-1.8880315 4:1.5151551 5:2.1565856 6:2.8548973 7:0.13956351 8:0.22269281 9:-0.31473012 10:0.04837136 11:0.14570967 12:0.14063643 13:1.2246142 14:1.0476722 15:0.77061338 16:-0.46286034 17:-0.82073743 18:0.64958487 
-0 -1 0 0 0 1:0.44736857 2:-9.70762 3:-0.83187735 4:2.177885 5:3.0191758 6:2.391579 7:0.28629178 8:0.29167142 9:0.13811092 10:-0.00484419 11:-0.1629789 12:0.0664041 13:1.1876549 14:0.95301165 15:0.8163466 16:-0.407711 17:-0.80848123 18:0.55933517 
-0 -1 0 0 0 1:1.5731701 2:-9.4818408 3:-1.2366291 4:1.6248276 5:1.5811809 6:1.9432283 7:0.45052073 8:-0.79988623 9:-0.52148333 10:-0.01376896 11:-0.00536646 12:-0.04355471 13:0.82749379 14:0.39012069 15:0.20380913 16:-0.55171578 17:0.35274602 18:-0.23066989 
-0 -0 0.818349060246125 1 0 1:-0.10273523 2:-9.5934405 3:-2.5252424 4:2.38554 5:4.4662741 6:3.7005528 7:0.3517049 8:0.055991973 9:0.12399701 10:0.22810357 11:0.06138497 12:0.05017748 13:1.5880304 14:1.2888812 15:1.0038925 16:-0.46994441 17:-0.82576949 18:0.65070096 
-0 -0 1 0 0 1:-0.65347344 2:-9.5606699 3:-2.5849059 4:2.0266064 5:3.7968126 6:3.7938376 7:0.44244634 8:-0.01170302 9:-0.13796814 10:0.18141515 11:0.65658773 12:0.26834803 13:1.299484 14:1.2253847 15:0.83544817 16:-0.45593488 17:-0.60702396 18:0.54374426 
-0 -1 0 0 0 1:0.59938841 2:-9.8339141 3:-0.71663848 4:1.5808558 5:1.9374056 6:2.0825407 7:0.27605973 8:0.047562057 9:-0.0079899071 10:-0.2179166 11:-0.08951391 12:0.00139075 13:1.1257729 14:0.53824666 15:0.39879752 16:-0.62163416 17:-0.66778234 18:0.4279176 
-0 -0.4794278700078987 -1 0 0 1:0.08009802 2:-9.5265885 3:-1.6508021 4:2.3409519 5:3.3370194 6:3.2348357 7:0.45545621 8:-0.40617393 9:0.018670722 10:0.04299734 11:-0.06564493 12:0.17021493 13:1.5973478 14:1.3845908 15:0.43586057 16:-0.56271797 17:-0.39770341 18:0.63819211 
-0 -0.08781266820430324 -1 0 0 1:-0.87394945 2:-9.2192328 3:-2.3582886 4:2.0656654 5:3.2408706 6:2.9038987 7:0.25792054 8:0.027666205 9:-0.38829366 10:-0.12824759 11:0.04836112 12:0.24567776 13:1.4051317 14:1.2365524 15:1.0427367 16:-0.53306689 17:-0.82487159 18:0.65828977 
-0 -0 -0 0 0.5600094391699409 1:-1.0584467 2:-8.7964647 3:-3.0099305 4:1.3261755 5:3.4364023 6:2.8924845 7:0.4952283 8:0.074616832 9:-0.19864912 10:0.03047046 11:0.59899813 12:0.25668862 13:1.3834915 14:1.2661887 15:1.0106079 16:-0.64909238 17:-0.80364779 18:0.71949159 
-0 -1 -1 0 0 1:-0.76660536 2:-9.3924711 3:-2.1858225 4:1.683559 5:2.8719224 6:2.9211817 7:0.22736036 8:-0.077373443 9:-0.32573446 10:0.10237846 11:0.58417551 12:0.17379111 13:1.3578949 14:1.1579881 15:1.0047453 16:-0.52844287 17:-0.80562419 18:0.60843743 
-0 -0 -0.7132249590016858 0 0 1:-0.94393798 2:-9.4060044 3:-2.3310187 4:1.913314 5:3.3956244 6:3.0998619 7:0.33544877 8:-0.11609699 9:-0.38897711 10:0.03029638 11:0.37850633 12:0.21684803 13:1.4261569 14:1.3330682 15:1.1467639 16:-0.56441749 17:-0.77728323 18:0.67116629 
-0 -1 -1 0.4152061840265267 0.03754485584543799 1:-0.70644507 2:-9.1315212 3:-2.2269726 4:1.7758058 5:3.2907343 6:2.9215701 7:0.34443274 8:0.29359898 9:-0.30813338 10:0.11104367 11:0.02500167 12:-0.05553377 13:1.3026521 14:1.2207893 15:0.79952809 16:-0.58479028 17:-0.82649415 18:0.58795755 
-0 -0 -1 0 0 1:1.254855 2:-9.4063517 3:-2.6801652 4:2.0817917 5:3.8736677 6:3.849906 7:0.054424617 8:-0.50764384 9:-0.12302576 10:-0.12101574 11:0.06956428 12:0.11479658 13:2.0699829 14:1.4207093 15:0.50452051 16:-0.6913393 17:0.36794572 18:-0.019401461 
-0 -0 -0 1 0 1:1.9803939 2:-9.0671471 3:-3.4997362 4:2.3818458 5:4.3031613 6:3.7917148 7:0.21529404 8:-0.46521803 9:-0.31872811 10:0.3224236 11:-0.0184675 12:0.1247995 13:1.6716172 14:1.2920274 15:0.48981891 16:-0.57540446 17:0.56097932 18:-0.1034408 
-0 -0 -1 0.490270968868733 0 1:1.0506775 2:-9.3452875 3:-2.4864802 4:2.0373458 5:3.1528809 6:3.2375908 7:0.47903978 8:-0.34328981 9:-0.0095825294 10:0.1269558 11:0.22082673 12:0.10367891 13:1.700239 14:1.3780396 15:0.55290859 16:-0.51195853 17:0.1654615 18:0.28362866 
-0 -0 -1 0.2537581461766326 0 1:1.1493844 2:-9.9583049 3:-1.8123029 4:1.9497706 5:3.0375326 6:2.6309836 7:0.25466911 8:-0.025044261 9:-0.33231031 10:-0.43975601 11:-0.39591206 12:-0.14165683 13:1.6948477 14:1.2348083 15:0.39588932 16:-0.547605 17:0.50505801 18:-0.23525079 
-0 -0 -1 0 0 1:1.531104 2:-9.1073756 3:-2.6693134 4:2.1917063 5:3.58188 6:2.8134499 7:0.39898078 8:-0.53013483 9:-0.21894893 10:0.02399757 11:-0.35548189 12:-0.10728653 13:1.6190908 14:1.3580928 15:0.4897566 16:-0.46766007 17:0.50121812 18:-0.20517217 
-0 -0 -1 0 0 1:1.3908934 2:-9.5106909 3:-2.4047302 4:2.0430729 5:3.0702405 6:3.0801971 7:0.32793269 8:-0.54573735 9:-0.14673867 10:-0.03273045 11:-0.40263139 12:-0.03180802 13:1.6232358 14:1.1783172 15:0.41877979 16:-0.64118615 17:0.47294867 18:-0.37542182 
-0 -0.3836681144872996 -1 1 0 1:0.81755405 2:-9.3366743 3:-1.1521257 4:2.0270352 5:3.729933 6:2.7367009 7:0.53782241 8:-0.12382373 9:0.16834877 10:-0.77140403 11:0.81598658 12:0.2297553 13:1.8108573 14:1.3384502 15:0.47686699 16:-0.51497143 17:-0.019765213 18:0.47139801 
-0 -0 -0 0 0.3412768223674809 1:1.7923892 2:-8.496525 3:-3.6542341 4:2.2104695 5:3.3086072 6:2.5587692 7:0.40446758 8:-0.65370557 9:-0.36747442 10:0.40669545 11:-0.35127295 12:0.03502059 13:1.6462598 14:1.1814469 15:0.41818288 16:-0.78108589 17:0.53405609 18:-0.28925305 
-0 -1 -1 0 0 1:1.2244187 2:-9.2595691 3:-2.5136664 4:1.9940023 5:2.61835 6:2.8307961 7:0.3318449 8:-0.35864181 9:-0.27297593 10:0.02055847 11:-0.67057531 12:-0.15394141 13:1.4638647 14:1.1837114 15:0.45889848 16:-0.34497885 17:0.44321491 18:-0.24029622 
-0 -0 -0.3673043453886316 0 0 1:1.5563748 2:-9.1152347 3:-2.4377164 4:2.1923047 5:3.2670992 6:2.3925207 7:0.24748738 8:-0.53734651 9:-0.35621323 10:-0.19406908 11:-0.26312517 12:-0.07543903 13:1.6094164 14:1.2149389 15:0.42744721 16:-0.58976223 17:0.53233593 18:-0.23349933 
-0 -0.318161117658333 -1 0 0 1:1.2170026 2:-9.2531766 3:-2.5069627 4:1.9473594 5:2.608963 6:2.6794195 7:0.32937475 8:-0.59933441 9:-0.17516423 10:0.23976124 11:-0.57070803 12:-0.03956605 13:1.4627751 14:1.1637604 15:0.39320905 16:-0.65479918 17:0.53950955 18:-0.31260115 
-0 -1 -1 0 0 1:1.1537778 2:-9.1676497 3:-2.6454433 4:2.14696 5:2.6738808 6:2.6610738 7:0.39938104 8:-0.47620174 9:-0.21596916 10:0.06697805 11:-0.63321178 12:-0.11370675 13:1.4409524 14:1.2126988 15:0.44131854 16:-0.46497274 17:0.52294097 18:-0.24232335 
-0 -0 -1 0 0 1:1.7894025 2:-9.6761063 3:-2.4484783 4:2.5940064 5:3.1010148 6:3.2111382 7:0.16588979 8:-0.44111404 9:-0.08749341 10:-0.48638334 11:-0.74102028 12:-0.20317088 13:2.1102097 14:1.1737668 15:0.68991466 16:-0.36641932 17:0.72733948 18:-0.25495323 
-0 -1 -1 1 0 1:1.1283154 2:-9.5871377 3:-1.1639592 4:1.2263703 5:1.9519332 6:1.9307301 7:0.15444807 8:-0.44246649 9:-0.35714744 10:-0.07573231 11:-0.02753282 12:-0.06615085 13:0.96715799 14:0.7267259 15:0.24640719 16:-0.70027491 17:0.42198467 18:-0.27163925 
-0 -0 -1 0 0 1:1.4230955 2:-9.3158328 3:-2.5593178 4:2.4395207 5:3.4876161 6:2.8724722 7:0.36455803 8:-0.44088903 9:-0.27356629 10:-0.27033561 11:-0.29110593 12:-0.10210332 13:1.7457341 14:1.254896 15:0.46885696 16:-0.55795805 17:0.53883788 18:-0.23939446 
-0 -1 -1 1 0 1:1.681789 2:-9.714216 3:-0.962104 4:1.5169372 5:1.545656 6:2.2414958 7:0.30308604 8:-0.55640643 9:-0.11826528 10:-0.49283098 11:-0.2776638 12:-0.13226174 13:1.1844552 14:0.72587952 15:0.32193822 16:-0.40233587 17:0.48429074 18:-0.16149521 
-0 -0 -1 0.6148560441500831 0 1:0.86952618 2:-9.3154258 3:-2.0411826 4:2.6750534 5:4.1920083 6:3.2365086 7:0.34313228 8:-0.2608995 9:-0.20604378 10:-0.18021746 11:-0.11585058 12:0.01523802 13:1.9044601 14:1.2733241 15:0.5292872 16:-0.6452231 17:0.3372347 18:-0.13012075 
-0 -0 -1 0 0 1:1.390271 2:-9.2285342 3:-2.1466952 4:2.5401428 5:4.2612529 6:4.0268726 7:0.3296552 8:-0.53622663 9:-0.38105147 10:-0.10128143 11:-0.12823891 12:0.09966257 13:1.9914334 14:1.3261141 15:0.52554102 16:-0.61545091 17:0.3685845 18:-0.13589357 
-0 -0 -1 0 0 1:1.3544059 2:-9.3858153 3:-2.4692419 4:2.5552018 5:3.341631 6:2.8936493 7:0.41711569 8:-0.53079718 9:-0.50078667 10:-0.33358573 11:0.62691278 12:0.14577683 13:1.643848 14:1.3845722 15:0.56482463 16:-0.63113045 17:0.17356862 18:0.26368906 
-0 -0 -1 0 0 1:1.6766116 2:-9.4468077 3:-2.6199989 4:3.2848366 5:4.8059678 6:4.5126723 7:0.024277647 8:-0.45874557 9:-0.160547 10:0.05532419 11:-0.15027072 12:0.10638847 13:2.3985493 14:1.4264393 15:0.50730257 16:-0.74083557 17:0.38287699 18:-0.064039533 
-0 -0 -1 0 0 1:1.1676223 2:-9.1958893 3:-1.6783773 4:2.1461051 5:3.8180704 6:3.6242916 7:0.12504422 8:-0.26587752 9:-0.14865453 10:0.38268078 11:-0.21289356 12:0.12035587 13:2.2438597 14:1.3489933 15:0.44320677 16:-0.74209352 17:0.35630039 18:-0.27102185 
-0 -0 -1 0 0 1:1.7785088 2:-9.1065796 3:-2.2065621 4:2.966893 5:4.1529665 6:4.2936742 7:0.21437171 8:-0.61528606 9:-0.27997934 10:-0.07342786 11:-0.09446207 12:0.09810206 13:2.2340441 14:1.5007874 15:0.42893006 16:-0.76164744 17:0.27830621 18:-0.19352907 
-0 -0 -0.5826927636550501 0 0 1:1.6743371 2:-8.8286846 3:-2.5435041 4:2.4994053 5:4.0074406 6:4.0019995 7:0.10414531 8:0.12673573 9:-0.39886557 10:-0.65901695 11:0.02770155 12:0.00715253 13:1.9728517 14:1.3515018 15:0.37455354 16:-0.52492364 17:-0.10847667 18:-0.14794463 
-0 -0 -0 0 0.1314201680711951 1:2.3656269 2:-7.170275 3:-3.7039857 4:1.9626571 5:3.7437052 6:3.6508268 7:0.24460493 8:-0.5192853 9:-0.29329917 10:-0.49960553 11:0.37842685 12:0.04787896 13:1.8143682 14:1.4209884 15:0.40806281 16:-0.67112965 17:0.23338192 18:-0.34319974 
-0 -0 -1 0.6519293385872348 0 1:1.4613669 2:-10.204375 3:-2.7925131 4:1.8755201 5:3.725944 6:3.3339226 7:0.21797177 8:-0.49930954 9:-0.30155521 10:0.42414797 11:-0.47436262 12:0.14016536 13:1.8516202 14:1.0525747 15:0.38010381 16:-0.61224797 17:0.33128013 18:0.077035268 
-0.007666845519739145 -0 -0 0 0 1:1.6981475 2:-7.1656721 3:-3.446202 4:2.2694125 5:4.0391758 6:3.2950843 7:0.40969967 8:-0.57242512 9:-0.24926185 10:-0.47467311 11:0.37337483 12:0.13161034 13:2.1596227 14:1.7334375 15:0.54345254 16:-0.65359189 17:0.27771544 18:0.027455846 
-0 -0 -1 1 0 1:1.1567047 2:-9.7394089 3:-3.1756393 4:2.4717656 5:4.5671935 6:2.8504348 7:0.25959518 8:-0.46970194 9:-0.13690452 10:0.14943567 11:-0.06653055 12:0.07705694 13:1.9175729 14:1.3561778 15:0.41964627 16:-0.68294863 17:0.26944503 18:-0.070135039 
-0 -0 -0.8007055701678284 0 0 1:1.1130405 2:-8.8232797 3:-2.7351719 4:2.5209684 5:3.4301098 6:3.5951217 7:0.42375825 8:-0.59567639 9:-0.25302261 10:0.19923947 11:-0.07463673 12:0.08635128 13:1.748394 14:1.2323865 15:0.41798715 16:-0.62060969 17:0.29718282 18:-0.028579088 
-0 -0 -1 0 0 1:1.0219231 2:-9.4077523 3:-2.3971406 4:2.3651644 5:3.8749348 6:2.9042766 7:0.31063313 8:-0.4634268 9:-0.28136195 10:-0.12968077 11:-0.38259524 12:-0.04562306 13:1.8521099 14:1.319627 15:0.36760256 16:-0.58377875 17:0.35448785 18:-0.14042874 
-0 -0 -1 0 0 1:0.9759963 2:-9.7181964 3:-2.2129427 4:1.9848492 5:3.392093 6:2.7360998 7:0.33153024 8:-0.35541742 9:-0.13891881 10:-0.17508341 11:0.10555937 12:0.14608467 13:1.7768027 14:1.1955806 15:0.43853658 16:-0.67593718 17:-0.046379901 18:0.35256062 
-0 -0 -1 0 0 1:0.95423304 2:-9.4710369 3:-1.8252077 4:1.8098231 5:3.4383906 6:2.7796904 7:0.37015181 8:-0.43764387 9:-0.34856191 10:-0.56858752 11:0.38895497 12:0.15380605 13:1.9531356 14:1.1783356 15:0.41569464 16:-0.60339883 17:0.062899856 18:0.26284511 
-0 -0 -0.2681074487801147 0 0 1:1.1956224 2:-8.5342457 3:-2.7375003 4:1.9713024 5:3.7235628 6:3.3941571 7:0.34580282 8:-0.70391587 9:-0.041206073 10:-0.53667284 11:0.56692765 12:0.25200262 13:1.8222341 14:1.3430635 15:0.46096833 16:-0.6124691 17:0.16147564 18:0.18497185 
-0 -0 -1 1 0 1:1.5548784 2:-9.3687387 3:-3.2838631 4:2.8968149 5:4.0489839 6:3.0206775 7:0.016906485 8:-0.5083516 9:-0.07045259 10:0.22983477 11:-0.27607255 12:0.16423353 13:1.9049972 14:1.4067796 15:0.48620598 16:-0.68856878 17:0.22213634 18:0.069873792 
-0 -0 -1 0 0 1:1.1160631 2:-9.2627115 3:-2.2335268 4:2.6342025 5:4.1476564 6:4.0687841 7:0.24621362 8:-0.29916622 9:-0.005320926 10:-0.12531309 11:-0.11034486 12:0.07750898 13:2.0921668 14:1.4715025 15:0.42218358 16:-0.63162708 17:0.22667461 18:0.02438432 
-0 -0 -1 0 0 1:1.2753134 2:-9.0635139 3:-2.5970505 4:1.8980196 5:3.5621723 6:3.5648413 7:0.06102314 8:-0.34620337 9:-0.009976345 10:-0.28533842 11:0.13931264 12:0.15663431 13:1.8747392 14:1.3021136 15:0.40315192 16:-0.63037507 17:0.22075518 18:0.070820478 
-0 -0 -1 0 0 1:0.89461136 2:-9.2312218 3:-2.1955847 4:2.0143916 5:3.7584488 6:3.9564528 7:0.038153059 8:-0.18202844 9:0.012291638 10:-0.12677259 11:0.32957388 12:0.12348984 13:1.9769868 14:1.3312695 15:0.47669076 16:-0.59979534 17:-0.42290708 18:0.33200406 
-0 -0 -1 1 0 1:-0.55014569 2:-9.0904188 3:-2.6033053 4:2.3766108 5:3.9607564 6:3.1327456 7:0.45347961 8:0.1613586 9:-0.24473198 10:-0.40204363 11:0.61343312 12:0.34663351 13:1.3972541 14:1.288635 15:1.0868948 16:-0.56478361 17:-0.76153529 18:0.45712398 
-0 -0 -1 -0.663173406398189 0 1:0.90124338 2:-10.00243 3:-2.1005229 4:1.9979323 5:3.4380916 6:2.0738086 7:0.1321573 8:-0.37070892 9:-0.060405989 10:-0.01898877 11:-0.00716237 12:0.02620912 13:1.4568328 14:0.76088405 15:0.39385601 16:-0.29319236 17:0.34491801 18:-0.30175366 
-0 -0 -1 -0 0 1:1.3135967 2:-9.717113 3:-2.6151327 4:2.4997875 5:4.4375033 6:3.6427248 7:0.15417567 8:0.056934927 9:-0.063578825 10:0.04147164 11:-0.50006041 12:-0.04448324 13:1.5626209 14:1.183197 15:0.53254542 16:-0.3471057 17:0.63074563 18:-0.20941376 
-0 -0.2938196782640898 -0 -0.4640215395126354 0 1:1.4582305 2:-8.8452046 3:-2.784277 4:2.0134313 5:3.4624928 6:2.5157296 7:-0.011348524 8:-0.32880728 9:0.18624815 10:0.10175486 11:-0.51355741 12:-0.08570442 13:1.4722831 14:0.96948633 15:0.59264603 16:-0.34165157 17:0.50831962 18:-0.066447359 
-0 -0.6030883773952739 -0 -0 0 1:1.7580085 2:-9.0067174 3:-2.4691402 4:2.1788094 5:3.4268978 6:2.3085875 7:0.49061996 8:0.07447226 9:0.42790476 10:-0.0876472 11:0.46589972 12:0.12219727 13:1.1809757 14:0.82274991 15:0.47984008 16:-0.3759181 17:0.3442356 18:0.25772031 
-0 -0.199533002960388 -1 -1 0 1:1.0484449 2:-9.8194831 3:-2.2347239 4:2.1308843 5:3.2742296 6:3.0666099 7:0.43447945 8:-0.036694222 9:0.12660018 10:0.12687027 11:-0.35307504 12:-0.02258085 13:1.4699173 14:1.0542556 15:0.42555409 16:-0.38497809 17:0.29112942 18:0.0039264766 
-0 -0 -1 -0 0 1:1.5321215 2:-8.8238364 3:-2.2527462 4:1.938022 5:3.7933284 6:2.3889445 7:0.38868685 8:-0.087241417 9:0.19662491 10:-0.07618737 11:0.36529022 12:0.06557002 13:1.3234752 14:1.0623477 15:0.57173396 16:-0.36600606 17:0.3141085 18:0.23135592 
-0 -0 -1 -0 0 1:1.0204566 2:-9.7019398 3:-2.3988823 4:1.8159437 5:3.6473229 6:2.3151473 7:0.39920117 8:-0.22768793 9:0.16857365 10:-0.28375325 11:0.48388974 12:0.125557 13:1.3110553 14:1.160336 15:0.57533969 16:-0.421703 17:0.16109575 18:0.55397171 
-0 -0 -0.1119119500643165 -0 0 1:0.97756457 2:-10.083234 3:-2.3865103 4:2.5709694 5:3.6761402 6:2.544846 7:0.37247233 8:-0.18303307 9:0.16883813 10:-0.15313196 11:0.37938599 12:0.01338378 13:1.4057891 14:0.81568356 15:0.53208707 16:-0.38480431 17:0.32075439 18:0.27195454 
-0 -0 -1 -0 0 1:1.3687771 2:-10.109122 3:-2.123214 4:2.5567731 5:3.8778991 6:3.0086584 7:0.17075095 8:-0.029339205 9:0.053100808 10:-0.15671164 11:0.41023467 12:0.07516976 13:1.4846272 14:1.0942791 15:0.64397958 16:-0.35779447 17:0.3487605 18:0.23150903 
-0 -0 -1 -0 0 1:1.0743262 2:-9.3881677 3:-2.5308866 4:2.6152945 5:3.3836297 6:2.4580681 7:0.36452859 8:-0.010566777 9:0.13175578 10:-0.398935 11:0.54640876 12:0.16262433 13:1.4171156 14:1.0717155 15:0.71201736 16:-0.34623115 17:0.37006699 18:0.42006597 
-0 -1 -1 -0.8769341558629251 0 1:1.4210306 2:-9.1081778 3:-2.2595279 4:1.7497098 5:3.024379 6:2.17949 7:0.14770304 8:-0.3573977 9:-0.12620151 10:-0.1560885 11:0.06126874 12:-0.06771775 13:1.14944 14:1.0859318 15:0.52744706 16:-0.25670691 17:0.38399093 18:0.32610154 
-0 -1 -1 -1 0 1:0.82259383 2:-9.4248647 3:-1.7612286 4:1.8701265 5:3.1276419 6:2.6063927 7:0.54295565 8:-0.20911473 9:-0.26029793 10:-0.2525472 11:0.653744 12:0.07933585 13:1.3497475 14:1.1686267 15:0.48878393 16:-0.55206701 17:0.14111453 18:0.42124708 
-0 -0 -1 -0 0 1:1.3701478 2:-9.502389 3:-2.4507947 4:1.8061024 5:3.413667 6:1.9969439 7:0.34204281 8:-0.34000219 9:0.021169409 10:-0.20460342 11:0.54334525 12:0.12215142 13:1.4214991 14:1.1941069 15:0.65788899 16:-0.38992264 17:0.20452198 18:0.44788138 
-0 -0 -1 -1 0 1:1.2472115 2:-9.5666255 3:-2.0795617 4:2.27244 5:3.5042172 6:2.7676757 7:0.36385502 8:-0.25735344 9:-0.057456996 10:-0.22004919 11:0.70907898 12:0.12274698 13:1.432968 14:1.1651246 15:0.63850204 16:-0.37929925 17:0.12635498 18:0.40687339 
-0 -0 -0 -0.9083384496062026 0 1:1.1270286 2:-9.6337648 3:-2.9594668 4:2.3412672 5:3.2782937 6:2.9066551 7:0.18009534 8:0.054426054 9:-0.025964802 10:-0.2710045 11:0.20367973 12:0.01711309 13:1.2063769 14:1.0015239 15:0.57175775 16:-0.44013705 17:0.46937811 18:-0.064474795 
-0 -0 -1 -0 0 1:0.91195746 2:-9.7752862 3:-2.2016361 4:2.3476239 5:3.5738853 6:2.6076765 7:0.19308754 8:-0.047518572 9:0.19219267 10:0.17524778 11:0.1304034 12:0.06658104 13:1.3203028 14:0.86705275 15:0.48844117 16:-0.52024952 17:0.39620155 18:-0.07609415 
-0 -1 -0 -0 0.5639165351891302 1:1.6427755 2:-8.4545008 3:-3.0739335 4:1.8736534 5:3.3150291 6:2.33114 7:-0.15151179 8:-0.044909324 9:0.35440997 10:-0.00112424 11:0.06516304 12:-0.07884461 13:1.2693744 14:0.77114476 15:0.55039128 16:-0.40684701 17:0.66205257 18:-0.21810893 
-0 -0 -1 -0 0 1:0.8657733 2:-9.8439878 3:-1.9254768 4:2.455737 5:4.0817135 6:2.8766593 7:0.44102 8:-0.051506369 9:0.34405183 10:-0.10316929 11:0.5143017 12:0.07480936 13:1.2915675 14:0.9571681 15:0.59033871 16:-0.42995337 17:0.19687862 18:0.4037648 
-0 -0 -1 -0 0 1:1.2587156 2:-9.586174 3:-2.6759334 4:2.0433234 5:3.362693 6:2.6971398 7:0.1615222 8:-0.040652544 9:0.22418602 10:-0.17752663 11:0.08416187 12:0.07655062 13:1.6076974 14:1.0012519 15:0.60396558 16:-0.35683917 17:0.40850802 18:-0.037977932 
-0 -0 -1 -0 0 1:1.1896967 2:-9.4723179 3:-1.6018586 4:2.0380133 5:4.5364056 6:3.5319757 7:0.25536257 8:-0.11724803 9:0.32341487 10:-0.20320432 11:0.03274848 12:0.15623794 13:1.7175434 14:1.2925913 15:0.49158201 16:-0.33057866 17:0.25555041 18:0.10665185 
-0 -0.1685744664277059 -0.4921624827663878 -0 0 1:2.204102 2:-9.2627593 3:-2.3577859 4:2.212551 5:3.5873589 6:2.6851639 7:0.080842635 8:0.14243306 9:0.1747722 10:0.0249752 11:-0.44150893 12:-0.06817559 13:1.6256678 14:0.69641466 15:0.53009552 16:-0.24801272 17:0.1741682 18:-0.015452602 
-0 -0 -1 -0 0 1:1.9512624 2:-9.0990019 3:-1.3620374 4:2.5611129 5:4.1020054 6:2.89971 7:0.34367178 8:-0.063556197 9:0.18320906 10:-0.21349012 11:0.91849602 12:0.31476373 13:1.5953046 14:0.97475003 15:0.72657811 16:-0.36145321 17:0.027949833 18:0.46672664 
-0 -0 -1 -0 0 1:1.0237906 2:-9.8558272 3:-1.9318814 4:2.2531206 5:3.7821245 6:2.8273097 7:-0.06559932 8:-0.42182369 9:0.086222802 10:-0.08120109 11:0.66967228 12:0.18782897 13:1.4248609 14:1.0508089 15:0.57396049 16:-0.47244289 17:0.069814617 18:0.46374068 
-7.926697352610775e-05 -0 -0 -0 0 1:1.9304209 2:-8.6880851 3:-3.0345788 4:2.9029077 5:4.6266114 6:2.4759254 7:0.16609846 8:-0.083215097 9:0.12068623 10:-0.03294419 11:0.00896929 12:0.07773803 13:1.6184139 14:0.80235491 15:0.58810883 16:-0.45581132 17:0.60747794 18:-0.38628834 
-0 -0 -1 -1 0 1:0.71217923 2:-9.9596397 3:-1.3392865 4:2.4070229 5:4.3713744 6:3.4858677 7:0.13900465 8:-0.31657531 9:0.13722167 10:0.05868552 11:0.21622066 12:0.1540626 13:1.8165027 14:1.3223065 15:0.76415606 16:-0.38216421 17:-0.16880396 18:0.5200434 
-0 -0 -1 -0 0 1:1.3900735 2:-9.836057 3:-2.2800222 4:2.131824 5:3.7261324 6:2.5546767 7:0.058605643 8:-0.18324028 9:0.13105149 10:-0.16825393 11:-0.00027613 12:0.07410642 13:1.7499326 14:0.8852711 15:0.45882684 16:-0.36241167 17:0.27485338 18:0.083020624 
-0 -0 -1 -0.5286190955205696 0 1:1.3379458 2:-9.9789608 3:-1.5316127 4:2.2527836 5:4.5382628 6:5.0299492 7:-0.048352625 8:-0.18471877 9:0.26633259 10:-0.15349233 11:-0.40947029 12:0.05130599 13:2.0172706 14:1.1037436 15:0.5091314 16:-0.31485789 17:0.23819918 18:0.17754867 
-0 -0 -1 -0 0 1:1.2754211 2:-9.2616161 3:-2.7403195 4:2.4274738 5:3.8406471 6:3.1577807 7:0.21190041 8:0.11415769 9:0.35862428 10:-0.01984122 11:-0.14649284 12:0.03560659 13:1.5520049 14:1.0034152 15:0.50193051 16:-0.35140667 17:0.28103512 18:0.1454259 
-0 -0 -1 -0.2496904976250701 0 1:1.0458112 2:-10.000814 3:-2.4677994 4:2.3475426 5:4.1419119 6:3.1392604 7:-0.026634473 8:-0.17324268 9:0.07213478 10:-0.0011517 11:-0.31993574 12:0.01575058 13:1.7332111 14:1.0761234 15:0.5643226 16:-0.32433786 17:0.14223029 18:-0.046530201 
-0 -0 -1 -0 0 1:1.4066533 2:-8.9096445 3:-2.2130325 4:1.8991525 5:3.5463409 6:2.4514014 7:-0.037337928 8:-0.19231637 9:0.29478629 10:-0.00521092 11:-0.01630213 12:0.13683616 13:1.3890145 14:1.035414 15:0.48850451 16:-0.53995511 17:0.25973072 18:-0.027536411 
-0 -0 -1 -0.2520074232874001 0 1:1.3821906 2:-8.906143 3:-2.5014081 4:2.5317271 5:3.7665913 6:2.3466036 7:0.12615541 8:-0.22511781 9:3.816488e-06 10:-0.09657195 11:0.08610635 12:0.09339759 13:1.6121467 14:0.9022367 15:0.55400977 16:-0.43772164 17:0.2132932 18:0.20049131 
-0 -0 -0 -1 0 1:1.6963338 2:-8.7798789 3:-3.2254207 4:2.2390922 5:3.7201341 6:2.7679775 7:0.086484692 8:-0.1664686 9:0.14663494 10:0.09406076 11:-0.05977127 12:0.09749647 13:1.5101386 14:0.85483174 15:0.50863897 16:-0.5252499 17:0.45433916 18:-0.10476013 
-0 -0 -1 -0 0 1:1.1348875 2:-9.583732 3:-2.3389315 4:2.6016632 5:3.9628693 6:3.0858937 7:0.15777087 8:-0.06068852 9:0.29846462 10:-0.21212629 11:0.21605573 12:0.09410307 13:1.6825441 14:1.0074311 15:0.61576208 16:-0.39971275 17:0.17143865 18:0.29343321 
-0.006774790366831597 -0 -0.5485793837737228 -0 0 1:1.2738231 2:-8.6653522 3:-2.6403795 4:2.3937322 5:4.2675099 6:3.2331671 7:-0.24141313 8:-0.222296 9:0.40401813 10:-0.01025057 11:0.10412079 12:0.13804877 13:1.5273648 14:1.0290182 15:0.57295722 16:-0.50115526 17:0.26417302 18:-0.065286715 
-0 -0 -1 -0 0 1:0.93396614 2:-9.269056 3:-2.1279186 4:2.2281507 5:4.0956166 6:3.3104788 7:0.20175297 8:-0.09702053 9:0.25895529 10:-0.15534021 11:0.33302721 12:0.19310915 13:1.729324 14:1.0690203 15:0.549065 16:-0.4400667 17:0.097655504 18:0.36759697 
-0 -0 -1 -0 0 1:1.0796833 2:-9.6502549 3:-2.2995649 4:2.357496 5:4.2365201 6:3.3247229 7:0.18404743 8:-0.10830784 9:0.22858981 10:-0.08136442 11:-0.31748007 12:0.03308375 13:1.5688712 14:1.0267969 15:0.42434934 16:-0.34147361 17:0.31008539 18:-0.025642834 
-0 -0 -0 -0 0.08731033166195921 1:1.6257468 2:-8.8702419 3:-3.7393181 4:1.8764989 5:3.8935163 6:2.3705313 7:-0.083061601 8:-0.21724337 9:0.28257378 10:0.04937299 11:-0.1834837 12:-0.04758096 13:1.2236996 14:0.70341209 15:0.45845148 16:-0.34069499 17:0.40507823 18:-0.085811112 
-0 -0 -1 -0 0 1:0.90495439 2:-9.2292884 3:-2.2535903 4:2.471173 5:4.2037878 6:3.0369943 7:-0.05781765 8:0.068446048 9:0.076946217 10:-0.02757138 11:-0.47620919 12:-0.04829804 13:1.5854374 14:1.1160652 15:0.53093473 16:-0.31269177 17:-0.10589309 18:0.094248243 
-0 -0 -1 -0 0 1:0.94673318 2:-9.7992401 3:-2.2891261 4:2.0892405 5:3.5367767 6:2.883866 7:-0.054486665 8:-0.079847381 9:-0.010458843 10:-0.20552256 11:-0.4883867 12:-0.04434574 13:1.3859811 14:0.93201673 15:0.36799098 16:-0.12695771 17:0.074536824 18:-0.076096826 
-0 -0.7519088255807526 -1 -0 0 1:1.0737695 2:-9.2774717 3:-2.5663807 4:2.2938801 5:3.7120397 6:3.0760847 7:0.15445555 8:0.12807727 9:0.48016564 10:-0.01456304 11:-0.32151364 12:-0.02614499 13:1.0730007 14:0.900772 15:0.41996291 16:-0.41057329 17:-0.11292694 18:-0.25333084 
-0 -0 -1 -0 0 1:1.0282677 2:-9.543665 3:-2.4137863 4:2.6328814 5:4.0932284 6:2.9234429 7:0.18310506 8:-0.048247071 9:0.26650973 10:0.11212737 11:-0.48780648 12:-0.00861929 13:1.4407936 14:1.0244326 15:0.51326257 16:-0.2509863 17:-0.0059327361 18:0.13433079 
-0 -1 -1 -0.4832361139962184 0.5071466291758812 1:-0.34349612 2:-9.2506866 3:-2.671139 4:1.754357 5:3.638884 6:2.3572359 7:0.43798993 8:0.094389899 9:-0.014518848 10:0.00292603 11:-0.17726396 12:-0.05770231 13:1.0940372 14:0.72018589 15:0.44916005 16:-0.24988054 17:-0.57790562 18:0.15453555 
-0 -1 -0 -0 -0 1:0.07621942 2:-4.3447937 3:-8.5324022 4:0.88130943 5:1.537277 6:1.210103 7:0.37113773 8:0.24726085 9:0.2807066 10:0.0087262 11:0.00763583 12:-0.00601401 13:0.40946888 14:0.29843338 15:0.18349408 16:-0.69309505 17:-0.46186715 18:0.087235698 
-0 -1 -0 -0 -0 1:0.22921484 2:-4.6289556 3:-8.7209815 4:0.7088296 5:1.1335611 6:0.77937124 7:0.10622566 8:0.054074569 9:0.33234543 10:0.00922099 11:0.03615098 12:0.02391227 13:0.098628608 14:0.11536361 15:0.12536535 16:-0.34554699 17:0.084027661 18:-0.24470627 
-0 -1 -0.7736073199028132 -0.5383443300164386 -0.5304946533828606 1:1.9205088 2:-8.6376932 3:-2.9508297 4:1.1897015 5:3.0387926 6:2.952938 7:0.04676008 8:0.73907437 9:-0.22905244 10:0.03488655 11:-0.14671448 12:-0.01016178 13:0.89327824 14:0.57239811 15:0.32538831 16:-0.42194061 17:-0.69177583 18:0.27001371 
-0 -1 -0 -0 -0 1:2.4034373 2:-9.3803925 3:-1.9917783 4:0.87956573 5:0.79614734 6:1.3657034 7:-0.065476461 8:0.42435361 9:-0.12303653 10:0.02924212 11:0.00193956 12:0.01028087 13:0.29614691 14:0.1661592 15:0.12087704 16:0.043656912 17:-0.35099414 18:0.1903519 
-0 -1 -0.9309782057685235 -0 -0.09831854702327213 1:2.8242781 2:-9.5114989 3:-1.3463494 4:0.75411269 5:0.81215752 6:0.78259074 7:-0.19431141 8:-0.011874127 9:0.21619784 10:-0.05540862 11:-0.0012401 12:-0.01199428 13:0.22749936 14:0.26747043 15:0.13031294 16:-0.06313548 17:-0.46722988 18:0.020969727 
-0 -0.6189192859536014 -0 -0 -0 1:0.86528844 2:-5.9637649 3:-7.0289512 4:1.4306583 5:3.1209878 6:1.9030831 7:0.081856191 8:0.44603066 9:-0.39901689 10:0.03567451 11:-0.13342828 12:0.04807819 13:1.4697588 14:0.71611141 15:0.47806809 16:-0.63279054 17:-0.2915023 18:0.1457732 
-0 -1 -0 -0 -0 1:1.8986199 2:-8.8361306 3:-2.5680925 4:1.2073686 5:1.906183 6:1.925514 7:-0.15028793 8:0.31473681 9:0.0077133544 10:-0.15772238 11:0.11943331 12:0.10883486 13:0.39281591 14:0.3906847 15:0.2367262 16:0.28675687 17:-0.14813439 18:0.48505644 
-0 -1 -0 -0 -0 1:1.3048997 2:-8.9164322 3:-3.7267844 4:0.65892089 5:0.76654767 6:1.1924111 7:-0.4175598 8:0.81178343 9:-0.41581705 10:0.08256147 11:-0.00170737 12:0.00288022 13:0.20604434 14:0.24207801 15:0.1650994 16:0.32252395 17:-0.28083552 18:0.52205315 
-0 -1 -0 -0 -0 1:2.0505559 2:-9.520998 3:-2.3323056 4:0.95864225 5:0.97542546 6:0.90762885 7:-0.092613425 8:0.32929988 9:0.17509595 10:-0.03813629 11:0.07145598 12:-0.07323362 13:0.19433311 14:0.44315123 15:0.23019141 16:-0.027078993 17:0.2258335 18:0.60215429 
-0 -1 -0 -0 -0 1:4.5798085 2:-8.5149843 3:-2.531174 4:0.43009706 5:0.24630406 6:0.66541165 7:-0.2025299 8:0.74094729 9:-0.36428946 10:0.01404074 11:-0.07650168 12:-0.02127951 13:0.10087041 14:0.1334697 15:0.07957143 16:0.29436209 17:-0.46021563 18:0.05467708 
-0 -1 -0 -0 -0 1:4.0707055 2:-8.3979677 3:-3.6407308 4:1.6762981 5:1.1769578 6:1.1878935 7:0.12390616 8:-0.4443485 9:-0.0052126282 10:-0.0882016 11:0.21175863 12:0.03546389 13:0.31769277 14:0.60221957 15:0.32081018 16:-0.7149383 17:0.11134074 18:-0.12181499 
-0 -1 -0 -0 -0 1:0.99869332 2:-6.1888556 3:-6.1088595 4:1.4987714 5:2.8830225 6:2.5321591 7:-0.1023959 8:0.17565617 9:-0.62990533 10:-0.06371812 11:-0.4031323 12:0.03806008 13:1.0156663 14:0.69808551 15:0.38529229 16:-0.50589161 17:-0.16444599 18:-0.2114573 
-0 -1 -0 -0 -0 1:1.1809999 2:-8.5931611 3:-4.8611033 4:0.37147898 5:0.39360168 6:0.45931157 7:0.38990133 8:0.4142081 9:0.48163322 10:-0.03948507 11:0.06280827 12:0.01604448 13:0.061229954 14:0.16461106 15:0.14497984 16:0.16899403 17:0.19588164 18:0.73247516 
-0 -1 -0 -0 -0 1:3.2638536 2:-8.8984337 3:-2.3025578 4:1.5667405 5:0.7286335 6:1.4187404 7:0.34633324 8:0.44523069 9:-0.19885593 10:0.01312259 11:0.15960602 12:-0.03057668 13:0.23129095 14:0.17588233 15:0.17567113 16:0.26760562 17:0.41175337 18:0.009436644 
-0.006995242706551757 -0 -0 -0 -0 1:0.89201974 2:-6.0189691 3:-6.8322435 4:3.1378268 5:5.5434351 6:3.8083959 7:0.73094164 8:0.65296342 9:0.62155617 10:-0.23236587 11:0.04909433 12:0.0445383 13:2.4334865 14:1.0714427 15:0.7038908 16:-0.73591466 17:-0.72306447 18:0.70109959 
-0 -0 -0 -0.2089263337848034 -0.05257455896409034 1:0.13961785 2:-6.8338656 3:-6.6520739 4:2.4016948 5:5.4793904 6:3.8461001 7:0.55634571 8:0.48679317 9:0.79231132 10:0.08181741 11:0.06743551 12:-0.08180084 13:2.9478059 14:1.3373662 15:0.81170598 16:-0.7220721 17:-0.81625752 18:0.59936506 
-0 -0 -0 -0 -0.1506809166508778 1:1.2349651 2:-6.4480282 3:-7.2538085 4:3.3884429 5:6.344596 6:3.8511117 7:0.82295923 8:0.45315432 9:0.41617032 10:-0.34096236 11:0.28644606 12:-0.00765096 13:2.702307 14:1.205539 15:0.64910511 16:-0.65921565 17:-0.70584063 18:0.60052275 
-0 -1 -0 -0 -0 1:2.1502624 2:-8.8087708 3:-3.5197938 4:1.5020554 5:0.69315318 6:1.4680019 7:0.063767763 8:0.70086919 9:-0.23259641 10:0.04313436 11:0.1517045 12:-0.07563113 13:0.16854137 14:0.27285939 15:0.17892241 16:0.2305618 17:-0.027086974 18:0.14576262 
-0 -1 -0 -0 -0 1:1.0408134 2:-8.7333893 3:-4.497514 4:0.46616296 5:0.94222637 6:0.78586966 7:0.35236531 8:0.18056419 9:0.44952128 10:-0.03596346 11:-0.13228376 12:-0.09788794 13:0.1140348 14:0.24855584 15:0.17076349 16:0.15337578 17:0.17236364 18:0.49442989 
-0 -1 -0 -0 -0 1:1.7819565 2:-9.116725 3:-3.2325194 4:0.52807905 5:0.76371737 6:0.73207741 7:0.50624931 8:0.45568183 9:0.30465251 10:-0.15001812 11:0.46068615 12:0.1679423 13:0.16652641 14:0.26527682 15:0.19059848 16:-0.11668585 17:-0.16620407 18:0.77491368 
-0 -1 -0 -0 -0 1:4.1127298 2:-8.7831231 3:-1.8759409 4:1.5480185 5:0.7574804 6:1.3137995 7:0.41855969 8:0.42509352 9:-0.16580371 10:0.05369017 11:0.269015 12:-0.04285209 13:0.27202177 14:0.31646983 15:0.20117655 16:0.024241558 17:-0.42942055 18:0.22270617 
-0 -1 -0 -0 -0 1:3.7663188 2:-8.3968604 3:-3.151392 4:1.2287705 5:0.96807102 6:1.621375 7:0.2927972 8:-0.08705405 9:-0.53743598 10:-0.0055332 11:0.15396156 12:-0.01295022 13:0.35003875 14:0.32624373 15:0.21137565 16:0.41340083 17:0.62874334 18:0.5412098 
-0 -1 -0 -0 -0 1:1.1023084 2:-8.7895633 3:-4.2444587 4:0.78473144 5:1.1181006 6:0.92846818 7:-0.022042824 8:0.34664651 9:0.40305635 10:0.03302032 11:0.01001212 12:-0.0180266 13:0.14202919 14:0.22361805 15:0.14813459 16:0.072412156 17:-0.033866235 18:0.45752228 
-0 -1 -0 -0 -0 1:1.4061087 2:-9.1461557 3:-3.9427295 4:1.707644 5:1.2935388 6:1.3128327 7:0.13728331 8:0.22164714 9:0.029262716 10:-0.08199036 11:0.13950324 12:0.00263587 13:0.30996959 14:0.64255088 15:0.44282628 16:-0.23537073 17:-0.32382768 18:0.4011844 
-0 -1 -0 -0 -0 1:0.50663699 2:-3.9095219 3:-8.9778554 4:0.38048149 5:0.38601682 6:0.43339301 7:0.020774507 8:0.24713662 9:0.36762228 10:-0.01068457 11:-0.04356891 12:-0.03548869 13:0.056005244 14:0.075053869 15:0.11401324 16:-0.48885149 17:0.16849397 18:0.024713763 
-0 -1 -0 -0 -0 1:0.38504752 2:-5.193227 3:-8.162917 4:0.3623758 5:1.6618313 6:1.4551036 7:-0.47869918 8:0.4636532 9:-0.92217421 10:0.09138798 11:-0.14827728 12:-0.11347186 13:0.25304633 14:0.13469946 15:0.28148467 16:-0.5254122 17:-0.40472891 18:0.60037837 
-0 -1 -0 -0 -0 1:0.30338122 2:-3.7878365 3:-8.9320483 4:0.52909763 5:0.87040673 6:0.59619613 7:0.31731609 8:0.39705951 9:0.27605553 10:-0.10088719 11:0.16503725 12:0.20851315 13:0.45626705 14:0.22159772 15:0.35711702 16:-0.74024562 17:-0.4977418 18:0.70598784 
-0 -1 -0 -0 -0 1:-0.40834304 2:-4.4133517 3:-8.1344559 4:0.88987732 5:2.6589497 6:1.3720142 7:0.76450055 8:-0.47196905 9:-0.72100008 10:0.09063124 11:-0.04908011 12:-0.00532638 13:0.87087794 14:0.43680936 15:0.32326657 16:-0.91095118 17:-0.3700707 18:0.41239433 
-0 -1 -0 -0 -0 1:1.448139 2:-8.9441989 3:-3.5360444 4:1.9442316 5:0.99231398 6:1.3820982 7:0.035655018 8:0.69276255 9:-0.10093719 10:0.01687535 11:0.16782289 12:-0.08982738 13:0.21093053 14:0.37287215 15:0.21641113 16:0.050335095 17:-0.45292106 18:0.18907775 
-0 -1 -0 -0 -0 1:1.7323067 2:-7.3380187 3:-5.3419548 4:1.6248702 5:2.3242841 6:2.2900601 7:-0.35141773 8:0.33945076 9:-0.76025469 10:-0.09040475 11:0.02754991 12:0.03207389 13:0.67331222 14:0.47990684 15:0.31374463 16:-0.35565121 17:-0.1020952 18:0.26582453 
-0 -1 -0 -0 -0 1:1.7196054 2:-5.6157497 3:-6.5321723 4:1.9379003 5:3.1286231 6:2.7636595 7:-0.29096588 8:0.557906 9:-0.71909159 10:-0.15482046 11:0.06405213 12:0.08645618 13:0.9768392 14:0.69856469 15:0.45566599 16:-0.4601146 17:-0.17165557 18:0.2247702 
-0 -1 -0 -0 -0 1:2.2040961 2:-7.467174 3:-5.2746298 4:2.0857871 5:2.0444188 6:2.212476 7:-0.32336552 8:0.44634353 9:-0.45802431 10:-0.29397559 11:0.04115079 12:0.10790974 13:0.51039342 14:0.67612431 15:0.41298474 16:-0.19365859 17:0.44435357 18:-0.23781172 
-0 -1 -0 -0 -0 1:1.787493 2:-7.4727464 3:-5.005761 4:1.820061 5:2.4345003 6:2.4096851 7:-0.3516689 8:0.65983402 9:-0.81869632 10:0.05824626 11:0.09722822 12:-0.06549661 13:0.61937743 14:0.33472467 15:0.29122522 16:-0.52934605 17:-0.53174505 18:0.45882446 
-0 -1 -0 -0 -0 1:0.40766676 2:-8.517157 3:-5.1540519 4:0.39774301 5:0.69713585 6:0.71051831 7:0.068377192 8:0.17138733 9:0.56293436 10:-0.04135836 11:0.0633985 12:0.00301194 13:0.079487914 14:0.13016384 15:0.10359138 16:0.31896009 17:0.11519227 18:0.39728628 
-0 -1 -0 -0 -0 1:1.2266753 2:-7.0588189 3:-5.6514413 4:1.696432 5:2.9723704 6:2.5042212 7:-0.096299321 8:0.29415258 9:-0.68469584 10:-0.10842837 11:0.06977599 12:0.0409314 13:1.035074 14:0.56503514 15:0.34757549 16:-0.66504727 17:-0.26502916 18:0.15904491 
-0 -1 -0 -0 -0 1:1.6599898 2:-8.6994096 3:-3.7181893 4:1.6886895 5:0.7095797 6:1.1377546 7:-0.013386268 8:0.65377098 9:-0.17961915 10:-0.01974909 11:0.15356842 12:-0.00071735 13:0.17227724 14:0.21192489 15:0.16318984 16:0.078450464 17:0.015599501 18:-0.054434201 
-0 -1 -0 -0 -0 1:1.38908 2:-8.9565709 3:-3.8328236 4:1.5113735 5:0.69343334 6:1.0880338 7:-0.052715465 8:0.74853608 9:-0.2585067 10:-0.0446082 11:0.01933983 12:-0.10056641 13:0.16623722 14:0.28921535 15:0.17499231 16:0.33334722 17:0.31196422 18:0.30566747 
-0 -1 -0 -0 -0 1:3.0720959 2:-8.5595344 3:-3.8529649 4:1.9246331 5:1.32433 6:2.3144875 7:-0.44705315 8:0.45931016 9:-0.22052438 10:-0.12423448 11:-0.07909495 12:0.03341478 13:0.4230731 14:0.56500844 15:0.19959568 16:-0.26618678 17:0.2324393 18:-0.076087788 
-0 -1 -0 -0 -0 1:0.04149755 2:-4.4346422 3:-8.0151169 4:1.0263665 5:3.4038382 6:1.1774329 7:0.63118544 8:0.023084718 9:-0.31477081 10:0.09571365 11:-0.00067818 12:-0.06227123 13:1.4810601 14:0.56127172 15:0.39976039 16:-0.86605448 17:-0.40480475 18:0.23056537 
-0 -1 -0 -0 -0 1:1.7771561 2:-9.5091767 3:-2.6185743 4:0.88321463 5:1.592451 6:1.4065481 7:0.051016684 8:0.47453258 9:0.5572644 10:-0.0418623 11:0.13505303 12:0.06707641 13:0.20018566 14:0.24261563 15:0.16042698 16:0.23668243 17:-0.31743492 18:0.26458937 
-0 -1 -0 -0 -0 1:0.75131848 2:-8.8405837 3:-4.338928 4:1.461712 5:1.1341742 6:1.4175075 7:-0.36831299 8:0.30550238 9:-0.22566728 10:0.01746161 11:0.00724183 12:0.08683142 13:0.40674659 14:0.50492615 15:0.27703314 16:-0.15205621 17:0.046957438 18:-0.23198969 
-0 -1 -0.7403957246322607 -0.1771812238447482 -0.2662571742047895 1:-0.78109624 2:-9.4258882 3:-2.5920525 4:1.444173 5:0.44856158 6:0.74595804 7:-0.073689629 8:-0.36027265 9:-0.27447627 10:0.01397051 11:0.14682149 12:-0.02935822 13:0.13181879 14:0.28760801 15:0.15309478 16:-0.0034512029 17:0.36574317 18:0.24458115 
-0 -1 -0 -0 -0 1:0.62248643 2:-9.2473826 3:-3.5127608 4:0.19766608 5:0.072273681 6:0.10552211 7:-0.23852491 8:0.25720606 9:-0.25209641 10:-0.01037551 11:-0.00273368 12:-0.00098963 13:0.032552328 14:0.086010328 15:0.0163675 16:0.45189013 17:-0.56076976 18:-0.55096434 
-0 -0.1006357968775867 -0 -0 -0 1:-3.258317 2:-6.4446044 3:-5.7731984 4:0.72343825 5:2.4486184 6:1.9389449 7:-0.13705399 8:0.29449464 9:-0.91734699 10:-0.04613827 11:0.00146222 12:0.02655229 13:0.37734845 14:0.2359656 15:0.27118723 16:-0.55825887 17:-0.62938405 18:0.59342905 
-0 -1 -0 -0 -0 1:-3.2745796 2:-7.8313559 3:-4.7896544 4:0.6829702 5:1.3136928 6:1.0072646 7:-0.63933127 8:0.78601342 9:-0.82781551 10:0.04426063 11:-0.0974827 12:-0.05921621 13:0.27129176 14:0.20509481 15:0.26141594 16:-0.099891417 17:-0.50356458 18:0.80432451 
-0 -1 -0 -0 -0 1:-3.7603811 2:-5.918299 3:-6.2661406 4:0.70791504 5:2.1996287 6:1.6106454 7:-0.21002976 8:0.26457955 9:-0.95157002 10:-0.09728598 11:-0.00212655 12:0.09005783 13:0.39865736 14:0.19369395 15:0.36549657 16:-0.58608653 17:0.007012591 18:0.16304909 
-0 -1 -0 -0 -0 1:-3.9791812 2:-5.7606109 3:-6.1632139 4:0.81980876 5:2.5551151 6:1.3616178 7:0.35378662 8:-0.017015095 9:-0.83332499 10:-0.27546318 11:0.12054118 12:0.11889992 13:0.60229731 14:0.53971977 15:0.56940022 16:-0.83932312 17:-0.68147302 18:0.68319381 
-0 -1 -0 -0 -0 1:-2.72107 2:-8.5921854 3:-3.6684857 4:1.4927339 5:0.87234573 6:1.1224214 7:-0.4249359 8:0.73187278 9:-0.43679973 10:0.01297816 11:-0.02675369 12:-0.09017485 13:0.23136547 14:0.13520918 15:0.19582333 16:-0.053081172 17:-0.52184767 18:-0.20059485 
-0 -1 -0 -0 -0 1:0.24402896 2:-9.0079805 3:-3.9343197 4:0.60684985 5:0.25758874 6:0.46435035 7:-0.51441813 8:0.83520615 9:-0.47440558 10:-0.09063981 11:-0.03311888 12:0.06720843 13:0.1121141 14:0.20081714 15:0.13388535 16:0.41479724 17:-0.44159904 18:0.26053171 
-0 -1 -0 -0 -0 1:-3.3649727 2:-7.6329484 3:-4.6851355 4:0.75583063 5:1.8751702 6:1.4120756 7:-0.23518257 8:0.38515874 9:-0.84522963 10:-0.02648062 11:-0.15896324 12:-0.08107598 13:0.31901068 14:0.24814746 15:0.23863975 16:-0.13695086 17:-0.40972281 18:0.27239598 
-0 -1 -0 -0 -0 1:0.20222025 2:-9.4349383 3:-2.9081112 4:0.49925105 5:0.24924143 6:0.41863731 7:-0.20555293 8:-0.26474172 9:-0.44241631 10:0.01480165 11:0.00862768 12:0.0547254 13:0.15077242 14:0.085565618 15:0.048674308 16:0.34596075 17:0.29691562 18:-0.061849342 
